<?xml version="1.0"?>
<opencv_storage>
<cascade>
  <stageType>BOOST</stageType>
  <featureType>HAAR</featureType>
  <height>24</height>
  <width>24</width>
  <stageParams>
    <boostType>GAB</boostType>
    <minHitRate>9.9500000476837158e-01</minHitRate>
    <maxFalseAlarm>5.0000000000000000e-01</maxFalseAlarm>
    <weightTrimRate>9.4999998807907104e-01</weightTrimRate>
    <maxDepth>1</maxDepth>
    <maxWeakCount>100</maxWeakCount></stageParams>
  <featureParams>
    <maxCatCount>0</maxCatCount>
    <featSize>1</featSize>
    <mode>BASIC</mode></featureParams>
  <stageNum>28</stageNum>
  <stages>
    <!-- stage 0 -->
    <_>
      <maxWeakCount>5</maxWeakCount>
      <stageThreshold>-1.2939670085906982e+00</stageThreshold>
      <weakClassifiers>
        <_>
          <internalNodes>
            0 -1 308 -2.9405212262645364e-04</internalNodes>
          <leafValues>
            -7.9498863220214844e-01 8.0612242221832275e-01</leafValues></_>
        <_>
          <internalNodes>
            0 -1 288 -4.0848623961210251e-02</internalNodes>
          <leafValues>
            8.0250126123428345e-01 -5.5958026647567749e-01</leafValues></_>
        <_>
          <internalNodes>
            0 -1 306 1.1904969811439514e-02</internalNodes>
          <leafValues>
            -2.4566984176635742e-01 8.2230323553085327e-01</leafValues></_>
        <_>
          <internalNodes>
            0 -1 411 1.3214688515290618e-03</internalNodes>
          <leafValues>
            -3.0270376801490784e-01 7.2468209266662598e-01</leafValues></_>
        <_>
          <internalNodes>
            0 -1 354 1.0850742459297180e-02</internalNodes>
          <leafValues>
            -4.1841039061546326e-01 6.2767601013183594e-01</leafValues></_></weakClassifiers></_>
    <!-- stage 1 -->
    <_>
      <maxWeakCount>10</maxWeakCount>
      <stageThreshold>-1.1493099927902222e+00</stageThreshold>
      <weakClassifiers>
        <_>
          <internalNodes>
            0 -1 339 1.5791494399309158e-02</internalNodes>
          <leafValues>
            -5.0375938415527344e-01 7.9739505052566528e-01</leafValues></_>
        <_>
          <internalNodes>
            0 -1 283 -3.6485109012573957e-04</internalNodes>
          <leafValues>
            -5.9723544120788574e-01 4.7644591331481934e-01</leafValues></_>
        <_>
          <internalNodes>
            0 -1 98 -5.6358434259891510e-02</internalNodes>
          <leafValues>
            8.2443565130233765e-01 -3.2573643326759338e-01</leafValues></_>
        <_>
          <internalNodes>
            0 -1 417 1.9960440695285797e-02</internalNodes>
          <leafValues>
            -1.9576762616634369e-01 8.5410243272781372e-01</leafValues></_>
        <_>
          <internalNodes>
            0 -1 24 1.8907748162746429e-02</internalNodes>
          <leafValues>
            2.7591812610626221e-01 -8.5063332319259644e-01</leafValues></_>
        <_>
          <internalNodes>
            0 -1 374 -1.3734382810071111e-03</internalNodes>
          <leafValues>
            -4.9022600054740906e-01 4.6375709772109985e-01</leafValues></_>
        <_>
          <internalNodes>
            0 -1 34 1.1109037324786186e-02</internalNodes>
          <leafValues>
            -3.9213210344314575e-01 5.3093975782394409e-01</leafValues></_>
        <_>
          <internalNodes>
            0 -1 316 -6.3138701021671295e-02</internalNodes>
          <leafValues>
            5.9170061349868774e-01 -3.3661991357803345e-01</leafValues></_>
        <_>
          <internalNodes>
            0 -1 315 -1.4723079279065132e-02</internalNodes>
          <leafValues>
            7.1675145626068115e-01 -2.2045567631721497e-01</leafValues></_>
        <_>
          <internalNodes>
            0 -1 226 -1.0542186349630356e-01</internalNodes>
          <leafValues>
            6.8272149562835693e-01 -1.8639880418777466e-01</leafValues></_></weakClassifiers></_>
    <!-- stage 2 -->
    <_>
      <maxWeakCount>10</maxWeakCount>
      <stageThreshold>-9.5932501554489136e-01</stageThreshold>
      <weakClassifiers>
        <_>
          <internalNodes>
            0 -1 256 -7.0639111101627350e-02</internalNodes>
          <leafValues>
            8.1906300783157349e-01 -3.7086093425750732e-01</leafValues></_>
        <_>
          <internalNodes>
            0 -1 92 -9.3457885086536407e-03</internalNodes>
          <leafValues>
            9.3890774250030518e-01 -1.6282254457473755e-01</leafValues></_>
        <_>
          <internalNodes>
            0 -1 371 7.5239734724164009e-03</internalNodes>
          <leafValues>
            -3.7155187129974365e-01 4.8921436071395874e-01</leafValues></_>
        <_>
          <internalNodes>
            0 -1 33 -4.9251219630241394e-01</internalNodes>
          <leafValues>
            -8.1526279449462891e-01 2.6024729013442993e-01</leafValues></_>
        <_>
          <internalNodes>
            0 -1 202 7.8557422384619713e-03</internalNodes>
          <leafValues>
            2.6664197444915771e-01 -7.3478633165359497e-01</leafValues></_>
        <_>
          <internalNodes>
            0 -1 15 -1.5319942031055689e-03</internalNodes>
          <leafValues>
            2.8230652213096619e-01 -5.1062577962875366e-01</leafValues></_>
        <_>
          <internalNodes>
            0 -1 409 -3.9976336061954498e-02</internalNodes>
          <leafValues>
            6.7083370685577393e-01 -2.6217284798622131e-01</leafValues></_>
        <_>
          <internalNodes>
            0 -1 395 -5.1204010844230652e-02</internalNodes>
          <leafValues>
            -7.3643195629119873e-01 2.8193342685699463e-01</leafValues></_>
        <_>
          <internalNodes>
            0 -1 197 -4.6092607080936432e-03</internalNodes>
          <leafValues>
            7.7491426467895508e-01 -2.4414868652820587e-01</leafValues></_>
        <_>
          <internalNodes>
            0 -1 147 -2.7540681883692741e-02</internalNodes>
          <leafValues>
            3.6877879500389099e-01 -3.6523371934890747e-01</leafValues></_></weakClassifiers></_>
    <!-- stage 3 -->
    <_>
      <maxWeakCount>9</maxWeakCount>
      <stageThreshold>-1.0572141408920288e+00</stageThreshold>
      <weakClassifiers>
        <_>
          <internalNodes>
            0 -1 330 -6.4943812321871519e-04</internalNodes>
          <leafValues>
            -6.7039108276367188e-01 6.0462427139282227e-01</leafValues></_>
        <_>
          <internalNodes>
            0 -1 488 -1.2552610132843256e-04</internalNodes>
          <leafValues>
            -4.5505821704864502e-01 5.7051819562911987e-01</leafValues></_>
        <_>
          <internalNodes>
            0 -1 392 -1.0475713759660721e-02</internalNodes>
          <leafValues>
            5.8441329002380371e-01 -3.5123342275619507e-01</leafValues></_>
        <_>
          <internalNodes>
            0 -1 26 -3.2012093067169189e-01</internalNodes>
          <leafValues>
            -7.8141117095947266e-01 2.5177776813507080e-01</leafValues></_>
        <_>
          <internalNodes>
            0 -1 334 3.4581008367240429e-03</internalNodes>
          <leafValues>
            2.4685324728488922e-01 -7.4722194671630859e-01</leafValues></_>
        <_>
          <internalNodes>
            0 -1 123 1.4322763308882713e-03</internalNodes>
          <leafValues>
            -3.9406675100326538e-01 4.7403284907341003e-01</leafValues></_>
        <_>
          <internalNodes>
            0 -1 229 -1.4994952827692032e-02</internalNodes>
          <leafValues>
            9.4057917594909668e-01 -1.6906657814979553e-01</leafValues></_>
        <_>
          <internalNodes>
            0 -1 214 -1.6889014840126038e-01</internalNodes>
          <leafValues>
            7.2395175695419312e-01 -1.7389406263828278e-01</leafValues></_>
        <_>
          <internalNodes>
            0 -1 476 6.9169565103948116e-03</internalNodes>
          <leafValues>
            -2.3998087644577026e-01 5.7753401994705200e-01</leafValues></_></weakClassifiers></_>
    <!-- stage 4 -->
    <_>
      <maxWeakCount>9</maxWeakCount>
      <stageThreshold>-1.3396049737930298e+00</stageThreshold>
      <weakClassifiers>
        <_>
          <internalNodes>
            0 -1 212 6.1510309576988220e-02</internalNodes>
          <leafValues>
            -2.8273808956146240e-01 8.5843920707702637e-01</leafValues></_>
        <_>
          <internalNodes>
            0 -1 493 1.0662456043064594e-03</internalNodes>
          <leafValues>
            5.1452910900115967e-01 -5.4769843816757202e-01</leafValues></_>
        <_>
          <internalNodes>
            0 -1 408 -1.0038518812507391e-03</internalNodes>
          <leafValues>
            3.7131771445274353e-01 -6.9092643260955811e-01</leafValues></_>
        <_>
          <internalNodes>
            0 -1 286 -2.3199073038995266e-03</internalNodes>
          <leafValues>
            -8.8732123374938965e-01 1.7046588659286499e-01</leafValues></_>
        <_>
          <internalNodes>
            0 -1 158 -1.1526612937450409e-01</internalNodes>
          <leafValues>
            8.0149298906326294e-01 -2.4246186017990112e-01</leafValues></_>
        <_>
          <internalNodes>
            0 -1 42 -9.8364278674125671e-03</internalNodes>
          <leafValues>
            7.9601502418518066e-01 -2.4530717730522156e-01</leafValues></_>
        <_>
          <internalNodes>
            0 -1 179 -1.1585266888141632e-01</internalNodes>
          <leafValues>
            7.2903066873550415e-01 -1.8929791450500488e-01</leafValues></_>
        <_>
          <internalNodes>
            0 -1 467 9.4733918085694313e-03</internalNodes>
          <leafValues>
            -1.9340002536773682e-01 6.6656905412673950e-01</leafValues></_>
        <_>
          <internalNodes>
            0 -1 61 -9.7281537950038910e-02</internalNodes>
          <leafValues>
            7.6831245422363281e-01 -1.8048501014709473e-01</leafValues></_></weakClassifiers></_>
    <!-- stage 5 -->
    <_>
      <maxWeakCount>7</maxWeakCount>
      <stageThreshold>-9.9496436119079590e-01</stageThreshold>
      <weakClassifiers>
        <_>
          <internalNodes>
            0 -1 160 1.1045689880847931e-01</internalNodes>
          <leafValues>
            -1.5760870277881622e-01 8.1930184364318848e-01</leafValues></_>
        <_>
          <internalNodes>
            0 -1 56 -1.1549086868762970e-01</internalNodes>
          <leafValues>
            6.9204115867614746e-01 -2.6073846220970154e-01</leafValues></_>
        <_>
          <internalNodes>
            0 -1 275 -3.1226366758346558e-02</internalNodes>
          <leafValues>
            3.7289941310882568e-01 -5.2487194538116455e-01</leafValues></_>
        <_>
          <internalNodes>
            0 -1 181 1.4903849363327026e-01</internalNodes>
          <leafValues>
            -3.5167366266250610e-01 7.1177124977111816e-01</leafValues></_>
        <_>
          <internalNodes>
            0 -1 448 2.5362916290760040e-02</internalNodes>
          <leafValues>
            -2.0933485031127930e-01 8.0710095167160034e-01</leafValues></_>
        <_>
          <internalNodes>
            0 -1 220 -5.3663959261029959e-04</internalNodes>
          <leafValues>
            -7.1458691358566284e-01 3.1761339306831360e-01</leafValues></_>
        <_>
          <internalNodes>
            0 -1 75 6.8876449950039387e-04</internalNodes>
          <leafValues>
            1.9552773237228394e-01 -7.8526067733764648e-01</leafValues></_></weakClassifiers></_>
    <!-- stage 6 -->
    <_>
      <maxWeakCount>14</maxWeakCount>
      <stageThreshold>-8.7702870368957520e-01</stageThreshold>
      <weakClassifiers>
        <_>
          <internalNodes>
            0 -1 236 1.0040143132209778e-01</internalNodes>
          <leafValues>
            -4.2588233947753906e-01 5.8145362138748169e-01</leafValues></_>
        <_>
          <internalNodes>
            0 -1 49 5.6445491500198841e-03</internalNodes>
          <leafValues>
            -4.6793773770332336e-01 4.4709050655364990e-01</leafValues></_>
        <_>
          <internalNodes>
            0 -1 473 8.6213685572147369e-03</internalNodes>
          <leafValues>
            -2.8588697314262390e-01 6.3908410072326660e-01</leafValues></_>
        <_>
          <internalNodes>
            0 -1 481 4.8539647832512856e-04</internalNodes>
          <leafValues>
            2.3168194293975830e-01 -6.2958061695098877e-01</leafValues></_>
        <_>
          <internalNodes>
            0 -1 454 6.5938867628574371e-03</internalNodes>
          <leafValues>
            -1.8105025589466095e-01 6.4438891410827637e-01</leafValues></_>
        <_>
          <internalNodes>
            0 -1 46 -2.7388397604227066e-02</internalNodes>
          <leafValues>
            4.5916920900344849e-01 -2.6485583186149597e-01</leafValues></_>
        <_>
          <internalNodes>
            0 -1 203 -1.6825127601623535e-01</internalNodes>
          <leafValues>
            5.4542189836502075e-01 -1.9884622097015381e-01</leafValues></_>
        <_>
          <internalNodes>
            0 -1 338 7.9364720731973648e-03</internalNodes>
          <leafValues>
            -2.3441205918788910e-01 5.2892363071441650e-01</leafValues></_>
        <_>
          <internalNodes>
            0 -1 327 4.6099247410893440e-03</internalNodes>
          <leafValues>
            -3.7879475951194763e-01 2.9415220022201538e-01</leafValues></_>
        <_>
          <internalNodes>
            0 -1 144 3.3302038908004761e-02</internalNodes>
          <leafValues>
            -2.1611665189266205e-01 4.7100853919982910e-01</leafValues></_>
        <_>
          <internalNodes>
            0 -1 456 -2.5672104675322771e-03</internalNodes>
          <leafValues>
            4.2623308300971985e-01 -2.1235819160938263e-01</leafValues></_>
        <_>
          <internalNodes>
            0 -1 30 -1.7789294943213463e-03</internalNodes>
          <leafValues>
            -5.0111001729965210e-01 1.9009037315845490e-01</leafValues></_>
        <_>
          <internalNodes>
            0 -1 290 -7.2462745010852814e-03</internalNodes>
          <leafValues>
            5.1565021276473999e-01 -1.7637962102890015e-01</leafValues></_>
        <_>
          <internalNodes>
            0 -1 20 -4.3412376195192337e-02</internalNodes>
          <leafValues>
            3.0041956901550293e-01 -3.2355690002441406e-01</leafValues></_></weakClassifiers></_>
    <!-- stage 7 -->
    <_>
      <maxWeakCount>16</maxWeakCount>
      <stageThreshold>-1.0871834754943848e+00</stageThreshold>
      <weakClassifiers>
        <_>
          <internalNodes>
            0 -1 217 4.2861808091402054e-02</internalNodes>
          <leafValues>
            -2.6178860664367676e-01 7.3026317358016968e-01</leafValues></_>
        <_>
          <internalNodes>
            0 -1 243 2.3533716797828674e-02</internalNodes>
          <leafValues>
            -4.7937855124473572e-01 3.4087306261062622e-01</leafValues></_>
        <_>
          <internalNodes>
            0 -1 486 -3.9611710235476494e-03</internalNodes>
          <leafValues>
            -6.0649228096008301e-01 2.2880351543426514e-01</leafValues></_>
        <_>
          <internalNodes>
            0 -1 258 -2.3454248905181885e-02</internalNodes>
          <leafValues>
            2.5940856337547302e-01 -5.9321498870849609e-01</leafValues></_>
        <_>
          <internalNodes>
            0 -1 81 -3.3932279329746962e-03</internalNodes>
          <leafValues>
            4.3246185779571533e-01 -2.8929319977760315e-01</leafValues></_>
        <_>
          <internalNodes>
            0 -1 5 -3.6346637643873692e-03</internalNodes>
          <leafValues>
            -5.3426092863082886e-01 1.7905341088771820e-01</leafValues></_>
        <_>
          <internalNodes>
            0 -1 263 -1.7143952846527100e-01</internalNodes>
          <leafValues>
            7.6015442609786987e-01 -1.4974741637706757e-01</leafValues></_>
        <_>
          <internalNodes>
            0 -1 468 4.0062768384814262e-03</internalNodes>
          <leafValues>
            -2.9066157341003418e-01 3.9547961950302124e-01</leafValues></_>
        <_>
          <internalNodes>
            0 -1 406 -2.1495419787243009e-04</internalNodes>
          <leafValues>
            -5.3054124116897583e-01 1.6122666001319885e-01</leafValues></_>
        <_>
          <internalNodes>
            0 -1 312 -2.3810603306628764e-04</internalNodes>
          <leafValues>
            -6.9920659065246582e-01 1.1974906921386719e-01</leafValues></_>
        <_>
          <internalNodes>
            0 -1 349 -5.3622938139596954e-05</internalNodes>
          <leafValues>
            -4.5072802901268005e-01 1.7543895542621613e-01</leafValues></_>
        <_>
          <internalNodes>
            0 -1 301 -6.0636214911937714e-02</internalNodes>
          <leafValues>
            8.3026206493377686e-01 -1.1751998215913773e-01</leafValues></_>
        <_>
          <internalNodes>
            0 -1 340 1.5486190095543861e-02</internalNodes>
          <leafValues>
            -2.0992627739906311e-01 4.9021130800247192e-01</leafValues></_>
        <_>
          <internalNodes>
            0 -1 12 -6.1667840927839279e-03</internalNodes>
          <leafValues>
            4.2533695697784424e-01 -2.1065379679203033e-01</leafValues></_>
        <_>
          <internalNodes>
            0 -1 321 -7.4387080967426300e-03</internalNodes>
          <leafValues>
            4.6584007143974304e-01 -1.9751596450805664e-01</leafValues></_>
        <_>
          <internalNodes>
            0 -1 388 -7.2752556297928095e-04</internalNodes>
          <leafValues>
            -6.8281030654907227e-01 1.4810766279697418e-01</leafValues></_></weakClassifiers></_>
    <!-- stage 8 -->
    <_>
      <maxWeakCount>18</maxWeakCount>
      <stageThreshold>-1.2059245109558105e+00</stageThreshold>
      <weakClassifiers>
        <_>
          <internalNodes>
            0 -1 163 1.2865212559700012e-01</internalNodes>
          <leafValues>
            -1.0659898817539215e-01 8.4367817640304565e-01</leafValues></_>
        <_>
          <internalNodes>
            0 -1 94 -8.1584118306636810e-03</internalNodes>
          <leafValues>
            5.6991690397262573e-01 -2.1573054790496826e-01</leafValues></_>
        <_>
          <internalNodes>
            0 -1 37 -8.0995753407478333e-02</internalNodes>
          <leafValues>
            5.6368082761764526e-01 -1.8960249423980713e-01</leafValues></_>
        <_>
          <internalNodes>
            0 -1 280 -2.2656768560409546e-01</internalNodes>
          <leafValues>
            8.5714477300643921e-01 -1.6851711273193359e-01</leafValues></_>
        <_>
          <internalNodes>
            0 -1 383 3.3514378592371941e-03</internalNodes>
          <leafValues>
            -1.0293137282133102e-01 6.1524587869644165e-01</leafValues></_>
        <_>
          <internalNodes>
            0 -1 259 -2.5790780782699585e-01</internalNodes>
          <leafValues>
            6.7004764080047607e-01 -1.5127538144588470e-01</leafValues></_>
        <_>
          <internalNodes>
            0 -1 12 -6.4763561822474003e-03</internalNodes>
          <leafValues>
            4.9361211061477661e-01 -2.0229713618755341e-01</leafValues></_>
        <_>
          <internalNodes>
            0 -1 459 4.1934885084629059e-03</internalNodes>
          <leafValues>
            -1.7527174949645996e-01 7.0496672391891479e-01</leafValues></_>
        <_>
          <internalNodes>
            0 -1 21 2.1380987018346786e-02</internalNodes>
          <leafValues>
            1.3555765151977539e-01 -8.2272565364837646e-01</leafValues></_>
        <_>
          <internalNodes>
            0 -1 369 3.2412847504019737e-03</internalNodes>
          <leafValues>
            -1.5328617393970490e-01 6.9979643821716309e-01</leafValues></_>
        <_>
          <internalNodes>
            0 -1 307 1.0445474181324244e-03</internalNodes>
          <leafValues>
            -1.3151581585407257e-01 6.1112987995147705e-01</leafValues></_>
        <_>
          <internalNodes>
            0 -1 297 -3.8907718844711781e-03</internalNodes>
          <leafValues>
            6.4338958263397217e-01 -1.3564330339431763e-01</leafValues></_>
        <_>
          <internalNodes>
            0 -1 495 -2.7143227634951472e-04</internalNodes>
          <leafValues>
            -5.1692545413970947e-01 2.1385361254215240e-01</leafValues></_>
        <_>
          <internalNodes>
            0 -1 38 1.7851181328296661e-02</internalNodes>
          <leafValues>
            -1.7235906422138214e-01 5.5719625949859619e-01</leafValues></_>
        <_>
          <internalNodes>
            0 -1 257 -2.1396383643150330e-02</internalNodes>
          <leafValues>
            2.1829462051391602e-01 -5.7597434520721436e-01</leafValues></_>
        <_>
          <internalNodes>
            0 -1 287 9.2402687296271324e-03</internalNodes>
          <leafValues>
            1.2564390897750854e-01 -8.0730319023132324e-01</leafValues></_>
        <_>
          <internalNodes>
            0 -1 79 -2.8227297589182854e-03</internalNodes>
          <leafValues>
            5.4901349544525146e-01 -1.9980256259441376e-01</leafValues></_>
        <_>
          <internalNodes>
            0 -1 58 2.7879877598024905e-04</internalNodes>
          <leafValues>
            2.0555736124515533e-01 -4.3635079264640808e-01</leafValues></_></weakClassifiers></_>
    <!-- stage 9 -->
    <_>
      <maxWeakCount>16</maxWeakCount>
      <stageThreshold>-9.2401689291000366e-01</stageThreshold>
      <weakClassifiers>
        <_>
          <internalNodes>
            0 -1 189 2.3921597748994827e-02</internalNodes>
          <leafValues>
            -1.6190476715564728e-01 6.4924114942550659e-01</leafValues></_>
        <_>
          <internalNodes>
            0 -1 407 -5.5855191021692008e-05</internalNodes>
          <leafValues>
            2.6133710145950317e-01 -6.2325394153594971e-01</leafValues></_>
        <_>
          <internalNodes>
            0 -1 172 -3.3626542426645756e-03</internalNodes>
          <leafValues>
            5.0730413198471069e-01 -2.4434658885002136e-01</leafValues></_>
        <_>
          <internalNodes>
            0 -1 348 1.2526818863989320e-05</internalNodes>
          <leafValues>
            -5.6911134719848633e-01 1.8570996820926666e-01</leafValues></_>
        <_>
          <internalNodes>
            0 -1 136 -1.2337671965360641e-01</internalNodes>
          <leafValues>
            5.3074622154235840e-01 -1.9113266468048096e-01</leafValues></_>
        <_>
          <internalNodes>
            0 -1 498 -5.2510491514112800e-05</internalNodes>
          <leafValues>
            -4.7142800688743591e-01 1.7413082718849182e-01</leafValues></_>
        <_>
          <internalNodes>
            0 -1 311 -1.5183174400590360e-04</internalNodes>
          <leafValues>
            -6.6015172004699707e-01 1.2807625532150269e-01</leafValues></_>
        <_>
          <internalNodes>
            0 -1 76 2.9576937668025494e-03</internalNodes>
          <leafValues>
            1.1747305840253830e-01 -5.8826476335525513e-01</leafValues></_>
        <_>
          <internalNodes>
            0 -1 274 -1.7206180095672607e-01</internalNodes>
          <leafValues>
            4.5553201436996460e-01 -1.9961422681808472e-01</leafValues></_>
        <_>
          <internalNodes>
            0 -1 422 1.3514048987417482e-05</internalNodes>
          <leafValues>
            -2.9663392901420593e-01 2.9946678876876831e-01</leafValues></_>
        <_>
          <internalNodes>
            0 -1 359 2.0945146679878235e-03</internalNodes>
          <leafValues>
            -1.8663392961025238e-01 4.8882281780242920e-01</leafValues></_>
        <_>
          <internalNodes>
            0 -1 66 4.3846655171364546e-04</internalNodes>
          <leafValues>
            1.5411435067653656e-01 -5.6657451391220093e-01</leafValues></_>
        <_>
          <internalNodes>
            0 -1 472 5.2973171696066856e-03</internalNodes>
          <leafValues>
            -2.7256378531455994e-01 2.7982574701309204e-01</leafValues></_>
        <_>
          <internalNodes>
            0 -1 296 3.9783537387847900e-02</internalNodes>
          <leafValues>
            -1.2637890875339508e-01 6.4139306545257568e-01</leafValues></_>
        <_>
          <internalNodes>
            0 -1 23 -1.6787426546216011e-02</internalNodes>
          <leafValues>
            -7.6057320833206177e-01 1.2247058749198914e-01</leafValues></_>
        <_>
          <internalNodes>
            0 -1 216 -1.8401208799332380e-03</internalNodes>
          <leafValues>
            -5.5398750305175781e-01 1.1212657392024994e-01</leafValues></_></weakClassifiers></_>
    <!-- stage 10 -->
    <_>
      <maxWeakCount>17</maxWeakCount>
      <stageThreshold>-8.8343638181686401e-01</stageThreshold>
      <weakClassifiers>
        <_>
          <internalNodes>
            0 -1 190 8.8334761559963226e-02</internalNodes>
          <leafValues>
            -1.7096774280071259e-01 6.4510780572891235e-01</leafValues></_>
        <_>
          <internalNodes>
            0 -1 341 3.6573326215147972e-03</internalNodes>
          <leafValues>
            -2.1299751102924347e-01 4.7890055179595947e-01</leafValues></_>
        <_>
          <internalNodes>
            0 -1 105 -4.2830273509025574e-02</internalNodes>
          <leafValues>
            4.0642130374908447e-01 -2.9212775826454163e-01</leafValues></_>
        <_>
          <internalNodes>
            0 -1 10 -7.3022395372390747e-03</internalNodes>
          <leafValues>
            4.3847757577896118e-01 -3.0500352382659912e-01</leafValues></_>
        <_>
          <internalNodes>
            0 -1 499 1.3071411522105336e-03</internalNodes>
          <leafValues>
            2.0672471821308136e-01 -5.0285184383392334e-01</leafValues></_>
        <_>
          <internalNodes>
            0 -1 207 1.2955135107040405e-01</internalNodes>
          <leafValues>
            -2.9919919371604919e-01 3.1453105807304382e-01</leafValues></_>
        <_>
          <internalNodes>
            0 -1 188 3.2160140108317137e-04</internalNodes>
          <leafValues>
            3.1139782071113586e-01 -3.8953951001167297e-01</leafValues></_>
        <_>
          <internalNodes>
            0 -1 200 -7.8879260399844497e-05</internalNodes>
          <leafValues>
            3.0853155255317688e-01 -3.1968387961387634e-01</leafValues></_>
        <_>
          <internalNodes>
            0 -1 124 3.6504054442048073e-03</internalNodes>
          <leafValues>
            -2.9959693551063538e-01 3.0535057187080383e-01</leafValues></_>
        <_>
          <internalNodes>
            0 -1 364 3.1131007708609104e-03</internalNodes>
          <leafValues>
            -1.3549034297466278e-01 6.4355474710464478e-01</leafValues></_>
        <_>
          <internalNodes>
            0 -1 379 3.6984104663133621e-03</internalNodes>
          <leafValues>
            -1.4024247229099274e-01 5.6225401163101196e-01</leafValues></_>
        <_>
          <internalNodes>
            0 -1 60 -2.3302207700908184e-03</internalNodes>
          <leafValues>
            -4.1662788391113281e-01 1.8618795275688171e-01</leafValues></_>
        <_>
          <internalNodes>
            0 -1 198 -8.8530749082565308e-02</internalNodes>
          <leafValues>
            5.0190216302871704e-01 -1.6946408152580261e-01</leafValues></_>
        <_>
          <internalNodes>
            0 -1 83 4.5074783265590668e-03</internalNodes>
          <leafValues>
            -2.1647758781909943e-01 4.2294916510581970e-01</leafValues></_>
        <_>
          <internalNodes>
            0 -1 442 -6.7811270128004253e-05</internalNodes>
          <leafValues>
            -3.9237305521965027e-01 2.1340520679950714e-01</leafValues></_>
        <_>
          <internalNodes>
            0 -1 209 2.6287580840289593e-03</internalNodes>
          <leafValues>
            -1.8191801011562347e-01 3.9608943462371826e-01</leafValues></_>
        <_>
          <internalNodes>
            0 -1 346 2.2130375145934522e-04</internalNodes>
          <leafValues>
            -1.7755918204784393e-01 4.1843059659004211e-01</leafValues></_></weakClassifiers></_>
    <!-- stage 11 -->
    <_>
      <maxWeakCount>16</maxWeakCount>
      <stageThreshold>-9.7134208679199219e-01</stageThreshold>
      <weakClassifiers>
        <_>
          <internalNodes>
            0 -1 92 -7.6860520057380199e-03</internalNodes>
          <leafValues>
            7.1026158332824707e-01 -9.6418730914592743e-02</leafValues></_>
        <_>
          <internalNodes>
            0 -1 399 5.0551639869809151e-03</internalNodes>
          <leafValues>
            -4.9920645356178284e-01 2.8774404525756836e-01</leafValues></_>
        <_>
          <internalNodes>
            0 -1 166 3.1784541904926300e-02</internalNodes>
          <leafValues>
            -2.3342199623584747e-01 4.7231960296630859e-01</leafValues></_>
        <_>
          <internalNodes>
            0 -1 271 1.7372490838170052e-03</internalNodes>
          <leafValues>
            1.5582019090652466e-01 -6.9565773010253906e-01</leafValues></_>
        <_>
          <internalNodes>
            0 -1 292 -6.7942356690764427e-04</internalNodes>
          <leafValues>
            1.8411308526992798e-01 -5.1539677381515503e-01</leafValues></_>
        <_>
          <internalNodes>
            0 -1 72 3.0803941190242767e-03</internalNodes>
          <leafValues>
            1.6841602325439453e-01 -5.1884281635284424e-01</leafValues></_>
        <_>
          <internalNodes>
            0 -1 284 -4.6989228576421738e-04</internalNodes>
          <leafValues>
            -5.8206641674041748e-01 1.4775802195072174e-01</leafValues></_>
        <_>
          <internalNodes>
            0 -1 279 1.0252332685922738e-05</internalNodes>
          <leafValues>
            -2.1163041889667511e-01 3.9909857511520386e-01</leafValues></_>
        <_>
          <internalNodes>
            0 -1 376 9.6885516541078687e-04</internalNodes>
          <leafValues>
            1.1982428282499313e-01 -6.7356032133102417e-01</leafValues></_>
        <_>
          <internalNodes>
            0 -1 433 -2.2844826162327081e-05</internalNodes>
          <leafValues>
            3.6084493994712830e-01 -2.4547600746154785e-01</leafValues></_>
        <_>
          <internalNodes>
            0 -1 445 -2.4121354799717665e-03</internalNodes>
          <leafValues>
            -6.1022377014160156e-01 1.6192154586315155e-01</leafValues></_>
        <_>
          <internalNodes>
            0 -1 438 -1.0924738489848096e-05</internalNodes>
          <leafValues>
            3.5347732901573181e-01 -2.4662713706493378e-01</leafValues></_>
        <_>
          <internalNodes>
            0 -1 117 -6.3542404677718878e-04</internalNodes>
          <leafValues>
            2.1414348483085632e-01 -3.8250640034675598e-01</leafValues></_>
        <_>
          <internalNodes>
            0 -1 118 8.7929293513298035e-03</internalNodes>
          <leafValues>
            9.4869188964366913e-02 -8.4839326143264771e-01</leafValues></_>
        <_>
          <internalNodes>
            0 -1 469 4.9156451132148504e-04</internalNodes>
          <leafValues>
            7.5593419373035431e-02 -7.6503485441207886e-01</leafValues></_>
        <_>
          <internalNodes>
            0 -1 269 1.0755011317087337e-05</internalNodes>
          <leafValues>
            -2.6406237483024597e-01 2.8334185481071472e-01</leafValues></_></weakClassifiers></_>
    <!-- stage 12 -->
    <_>
      <maxWeakCount>20</maxWeakCount>
      <stageThreshold>-1.1094920635223389e+00</stageThreshold>
      <weakClassifiers>
        <_>
          <internalNodes>
            0 -1 185 9.9483266472816467e-02</internalNodes>
          <leafValues>
            -1.1334289610385895e-01 6.8821293115615845e-01</leafValues></_>
        <_>
          <internalNodes>
            0 -1 228 -1.4509404078125954e-02</internalNodes>
          <leafValues>
            3.9616149663925171e-01 -2.7784743905067444e-01</leafValues></_>
        <_>
          <internalNodes>
            0 -1 397 2.0142063498497009e-02</internalNodes>
          <leafValues>
            -4.8206013441085815e-01 2.1676844358444214e-01</leafValues></_>
        <_>
          <internalNodes>
            0 -1 439 5.4517138778464869e-05</internalNodes>
          <leafValues>
            -3.7398290634155273e-01 2.4744416773319244e-01</leafValues></_>
        <_>
          <internalNodes>
            0 -1 57 -1.1422682291595265e-04</internalNodes>
          <leafValues>
            -5.4746371507644653e-01 1.4757618308067322e-01</leafValues></_>
        <_>
          <internalNodes>
            0 -1 420 -2.5741188437677920e-05</internalNodes>
          <leafValues>
            1.9931940734386444e-01 -3.5858315229415894e-01</leafValues></_>
        <_>
          <internalNodes>
            0 -1 161 -1.2109933793544769e-01</internalNodes>
          <leafValues>
            5.5727577209472656e-01 -1.5018928050994873e-01</leafValues></_>
        <_>
          <internalNodes>
            0 -1 12 -6.4776130020618439e-03</internalNodes>
          <leafValues>
            3.5414186120033264e-01 -2.4150413274765015e-01</leafValues></_>
        <_>
          <internalNodes>
            0 -1 344 7.1424487978219986e-03</internalNodes>
          <leafValues>
            -2.1442924439907074e-01 3.9240235090255737e-01</leafValues></_>
        <_>
          <internalNodes>
            0 -1 492 4.0777918184176087e-04</internalNodes>
          <leafValues>
            1.4760139584541321e-01 -5.5398440361022949e-01</leafValues></_>
        <_>
          <internalNodes>
            0 -1 23 -1.3584749773144722e-02</internalNodes>
          <leafValues>
            -7.6221972703933716e-01 9.7218610346317291e-02</leafValues></_>
        <_>
          <internalNodes>
            0 -1 452 -2.3078860249370337e-04</internalNodes>
          <leafValues>
            -5.0367438793182373e-01 1.3111242651939392e-01</leafValues></_>
        <_>
          <internalNodes>
            0 -1 224 3.1500944169238210e-04</internalNodes>
          <leafValues>
            -3.2499971985816956e-01 2.4075445532798767e-01</leafValues></_>
        <_>
          <internalNodes>
            0 -1 466 6.8498253822326660e-03</internalNodes>
          <leafValues>
            -2.2549645602703094e-01 3.5574564337730408e-01</leafValues></_>
        <_>
          <internalNodes>
            0 -1 175 1.1403816642996389e-05</internalNodes>
          <leafValues>
            -2.7720320224761963e-01 2.9313239455223083e-01</leafValues></_>
        <_>
          <internalNodes>
            0 -1 41 1.4162653125822544e-02</internalNodes>
          <leafValues>
            1.1086277663707733e-01 -7.0468932390213013e-01</leafValues></_>
        <_>
          <internalNodes>
            0 -1 303 1.1922097764909267e-03</internalNodes>
          <leafValues>
            -2.0656043291091919e-01 3.5539293289184570e-01</leafValues></_>
        <_>
          <internalNodes>
            0 -1 68 -1.0638288222253323e-04</internalNodes>
          <leafValues>
            -3.7830927968025208e-01 2.0039269328117371e-01</leafValues></_>
        <_>
          <internalNodes>
            0 -1 234 1.0924738489848096e-05</internalNodes>
          <leafValues>
            -2.1566425263881683e-01 3.0420780181884766e-01</leafValues></_>
        <_>
          <internalNodes>
            0 -1 332 -1.0644062422215939e-04</internalNodes>
          <leafValues>
            -3.8971954584121704e-01 1.5875887870788574e-01</leafValues></_></weakClassifiers></_>
    <!-- stage 13 -->
    <_>
      <maxWeakCount>18</maxWeakCount>
      <stageThreshold>-8.2817375659942627e-01</stageThreshold>
      <weakClassifiers>
        <_>
          <internalNodes>
            0 -1 93 -1.0200222954154015e-02</internalNodes>
          <leafValues>
            7.0498085021972656e-01 -1.2125535309314728e-01</leafValues></_>
        <_>
          <internalNodes>
            0 -1 21 -4.5866295695304871e-03</internalNodes>
          <leafValues>
            -6.4573723077774048e-01 2.2001442313194275e-01</leafValues></_>
        <_>
          <internalNodes>
            0 -1 331 -1.2115152180194855e-01</internalNodes>
          <leafValues>
            7.8982728719711304e-01 -1.2750931084156036e-01</leafValues></_>
        <_>
          <internalNodes>
            0 -1 427 -1.0431793270981871e-05</internalNodes>
          <leafValues>
            2.5507688522338867e-01 -3.6580699682235718e-01</leafValues></_>
        <_>
          <internalNodes>
            0 -1 13 -1.9903436303138733e-02</internalNodes>
          <leafValues>
            3.7296149134635925e-01 -2.7554467320442200e-01</leafValues></_>
        <_>
          <internalNodes>
            0 -1 478 -2.2064778022468090e-04</internalNodes>
          <leafValues>
            -4.4748368859291077e-01 2.1522176265716553e-01</leafValues></_>
        <_>
          <internalNodes>
            0 -1 314 -3.1580636277794838e-03</internalNodes>
          <leafValues>
            -7.1744996309280396e-01 9.1176070272922516e-02</leafValues></_>
        <_>
          <internalNodes>
            0 -1 90 -4.8690393567085266e-02</internalNodes>
          <leafValues>
            2.4576231837272644e-01 -3.5590678453445435e-01</leafValues></_>
        <_>
          <internalNodes>
            0 -1 77 -2.3214044631458819e-05</internalNodes>
          <leafValues>
            3.5509845614433289e-01 -2.5670853257179260e-01</leafValues></_>
        <_>
          <internalNodes>
            0 -1 130 6.0561276972293854e-02</internalNodes>
          <leafValues>
            -3.6556285619735718e-01 2.5163614749908447e-01</leafValues></_>
        <_>
          <internalNodes>
            0 -1 16 8.9614778757095337e-02</internalNodes>
          <leafValues>
            9.6850134432315826e-02 -7.6911234855651855e-01</leafValues></_>
        <_>
          <internalNodes>
            0 -1 86 1.0880356057896279e-05</internalNodes>
          <leafValues>
            -2.2978010773658752e-01 3.3070343732833862e-01</leafValues></_>
        <_>
          <internalNodes>
            0 -1 378 1.2752223992720246e-03</internalNodes>
          <leafValues>
            -1.8628305196762085e-01 3.8872474431991577e-01</leafValues></_>
        <_>
          <internalNodes>
            0 -1 27 -3.4976102411746979e-02</internalNodes>
          <leafValues>
            2.4974390864372253e-01 -3.1768998503684998e-01</leafValues></_>
        <_>
          <internalNodes>
            0 -1 180 4.9037970602512360e-03</internalNodes>
          <leafValues>
            -2.3075257241725922e-01 3.5835146903991699e-01</leafValues></_>
        <_>
          <internalNodes>
            0 -1 361 -1.3765881703875493e-05</internalNodes>
          <leafValues>
            2.0957981050014496e-01 -3.3183500170707703e-01</leafValues></_>
        <_>
          <internalNodes>
            0 -1 83 4.1620098054409027e-03</internalNodes>
          <leafValues>
            -2.0756061375141144e-01 3.5319578647613525e-01</leafValues></_>
        <_>
          <internalNodes>
            0 -1 328 4.0312577039003372e-03</internalNodes>
          <leafValues>
            -1.4121258258819580e-01 6.2296420335769653e-01</leafValues></_></weakClassifiers></_>
    <!-- stage 14 -->
    <_>
      <maxWeakCount>21</maxWeakCount>
      <stageThreshold>-9.3260622024536133e-01</stageThreshold>
      <weakClassifiers>
        <_>
          <internalNodes>
            0 -1 51 1.5419853851199150e-02</internalNodes>
          <leafValues>
            -1.9771863520145416e-01 5.5523675680160522e-01</leafValues></_>
        <_>
          <internalNodes>
            0 -1 187 1.8127653747797012e-02</internalNodes>
          <leafValues>
            -5.7272428274154663e-01 2.2453553974628448e-01</leafValues></_>
        <_>
          <internalNodes>
            0 -1 95 -2.1429616957902908e-02</internalNodes>
          <leafValues>
            3.0652868747711182e-01 -3.5620057582855225e-01</leafValues></_>
        <_>
          <internalNodes>
            0 -1 270 6.3501438125967979e-03</internalNodes>
          <leafValues>
            -2.2995892167091370e-01 3.8309574127197266e-01</leafValues></_>
        <_>
          <internalNodes>
            0 -1 317 -1.3396251201629639e-01</internalNodes>
          <leafValues>
            7.0374238491058350e-01 -1.0886511206626892e-01</leafValues></_>
        <_>
          <internalNodes>
            0 -1 53 -5.3253937512636185e-03</internalNodes>
          <leafValues>
            2.3701980710029602e-01 -4.3135201930999756e-01</leafValues></_>
        <_>
          <internalNodes>
            0 -1 432 4.8516307026147842e-02</internalNodes>
          <leafValues>
            -1.6163277626037598e-01 5.0098323822021484e-01</leafValues></_>
        <_>
          <internalNodes>
            0 -1 7 -6.1885300092399120e-03</internalNodes>
          <leafValues>
            4.9929749965667725e-01 -1.9131423532962799e-01</leafValues></_>
        <_>
          <internalNodes>
            0 -1 384 7.3884561657905579e-02</internalNodes>
          <leafValues>
            -8.9102767407894135e-02 7.8208494186401367e-01</leafValues></_>
        <_>
          <internalNodes>
            0 -1 182 1.6078259795904160e-02</internalNodes>
          <leafValues>
            -2.7240136265754700e-01 3.1051063537597656e-01</leafValues></_>
        <_>
          <internalNodes>
            0 -1 88 -3.2176607055589557e-04</internalNodes>
          <leafValues>
            2.3946918547153473e-01 -2.7856713533401489e-01</leafValues></_>
        <_>
          <internalNodes>
            0 -1 6 2.3219380527734756e-02</internalNodes>
          <leafValues>
            8.4978990256786346e-02 -7.4023610353469849e-01</leafValues></_>
        <_>
          <internalNodes>
            0 -1 474 9.3534402549266815e-03</internalNodes>
          <leafValues>
            -2.4174922704696655e-01 3.1668379902839661e-01</leafValues></_>
        <_>
          <internalNodes>
            0 -1 70 -5.7862384710460901e-04</internalNodes>
          <leafValues>
            -5.4248285293579102e-01 1.4758813381195068e-01</leafValues></_>
        <_>
          <internalNodes>
            0 -1 460 -1.4357840642333031e-02</internalNodes>
          <leafValues>
            -9.1589045524597168e-01 5.4826002568006516e-02</leafValues></_>
        <_>
          <internalNodes>
            0 -1 428 -7.9367560101673007e-04</internalNodes>
          <leafValues>
            -6.1896145343780518e-01 9.2570491135120392e-02</leafValues></_>
        <_>
          <internalNodes>
            0 -1 294 -3.7960282497806475e-05</internalNodes>
          <leafValues>
            1.5716177225112915e-01 -4.1171866655349731e-01</leafValues></_>
        <_>
          <internalNodes>
            0 -1 211 -1.9845900169457309e-05</internalNodes>
          <leafValues>
            2.5972115993499756e-01 -2.4781168997287750e-01</leafValues></_>
        <_>
          <internalNodes>
            0 -1 127 8.0306299030780792e-02</internalNodes>
          <leafValues>
            -3.9881551265716553e-01 2.0871062576770782e-01</leafValues></_>
        <_>
          <internalNodes>
            0 -1 239 7.9335361719131470e-02</internalNodes>
          <leafValues>
            1.1821468919515610e-01 -5.3911334276199341e-01</leafValues></_>
        <_>
          <internalNodes>
            0 -1 0 -3.8130878238007426e-05</internalNodes>
          <leafValues>
            -3.7769657373428345e-01 1.6901247203350067e-01</leafValues></_></weakClassifiers></_>
    <!-- stage 15 -->
    <_>
      <maxWeakCount>23</maxWeakCount>
      <stageThreshold>-1.0244909524917603e+00</stageThreshold>
      <weakClassifiers>
        <_>
          <internalNodes>
            0 -1 210 5.6721739470958710e-02</internalNodes>
          <leafValues>
            -2.1150591969490051e-01 6.4556962251663208e-01</leafValues></_>
        <_>
          <internalNodes>
            0 -1 174 -1.8727581948041916e-02</internalNodes>
          <leafValues>
            6.4805507659912109e-01 -1.4019484817981720e-01</leafValues></_>
        <_>
          <internalNodes>
            0 -1 443 -5.7708541862666607e-04</internalNodes>
          <leafValues>
            -4.8257908225059509e-01 2.1571527421474457e-01</leafValues></_>
        <_>
          <internalNodes>
            0 -1 458 6.2584597617387772e-03</internalNodes>
          <leafValues>
            -1.4092412590980530e-01 5.9084874391555786e-01</leafValues></_>
        <_>
          <internalNodes>
            0 -1 370 3.4883523767348379e-05</internalNodes>
          <leafValues>
            -2.6680606603622437e-01 3.7346047163009644e-01</leafValues></_>
        <_>
          <internalNodes>
            0 -1 184 -5.8280886150896549e-03</internalNodes>
          <leafValues>
            2.1576546132564545e-01 -4.0242490172386169e-01</leafValues></_>
        <_>
          <internalNodes>
            0 -1 31 -9.9554900079965591e-03</internalNodes>
          <leafValues>
            4.7341921925544739e-01 -1.6182610392570496e-01</leafValues></_>
        <_>
          <internalNodes>
            0 -1 489 -6.4670918509364128e-03</internalNodes>
          <leafValues>
            -4.2128270864486694e-01 1.4735487103462219e-01</leafValues></_>
        <_>
          <internalNodes>
            0 -1 485 -1.9588826398830861e-04</internalNodes>
          <leafValues>
            -3.4284165501594543e-01 2.0041699707508087e-01</leafValues></_>
        <_>
          <internalNodes>
            0 -1 241 5.7866787537932396e-03</internalNodes>
          <leafValues>
            -1.4392665028572083e-01 4.1583004593849182e-01</leafValues></_>
        <_>
          <internalNodes>
            0 -1 103 1.4772663125768304e-03</internalNodes>
          <leafValues>
            -1.7377914488315582e-01 4.3177184462547302e-01</leafValues></_>
        <_>
          <internalNodes>
            0 -1 232 3.3435859950259328e-04</internalNodes>
          <leafValues>
            1.4928707480430603e-01 -4.1285759210586548e-01</leafValues></_>
        <_>
          <internalNodes>
            0 -1 199 2.2215575882000849e-05</internalNodes>
          <leafValues>
            -2.0381903648376465e-01 3.0808874964714050e-01</leafValues></_>
        <_>
          <internalNodes>
            0 -1 324 4.0332702919840813e-03</internalNodes>
          <leafValues>
            -2.1224685013294220e-01 3.0621629953384399e-01</leafValues></_>
        <_>
          <internalNodes>
            0 -1 250 3.1939656473696232e-03</internalNodes>
          <leafValues>
            -2.0266979932785034e-01 3.0112224817276001e-01</leafValues></_>
        <_>
          <internalNodes>
            0 -1 476 6.6846241243183613e-03</internalNodes>
          <leafValues>
            -2.3219086229801178e-01 2.9719361662864685e-01</leafValues></_>
        <_>
          <internalNodes>
            0 -1 62 -4.2045714508276433e-05</internalNodes>
          <leafValues>
            -3.8845950365066528e-01 1.5283831954002380e-01</leafValues></_>
        <_>
          <internalNodes>
            0 -1 444 4.0460558375343680e-04</internalNodes>
          <leafValues>
            1.5710389614105225e-01 -4.0478944778442383e-01</leafValues></_>
        <_>
          <internalNodes>
            0 -1 32 -1.9480200111865997e-01</internalNodes>
          <leafValues>
            -5.6612658500671387e-01 9.8561406135559082e-02</leafValues></_>
        <_>
          <internalNodes>
            0 -1 277 -7.6777964830398560e-02</internalNodes>
          <leafValues>
            4.2999687790870667e-01 -1.4911206066608429e-01</leafValues></_>
        <_>
          <internalNodes>
            0 -1 110 2.9124384745955467e-02</internalNodes>
          <leafValues>
            -8.2787774503231049e-02 6.6471415758132935e-01</leafValues></_>
        <_>
          <internalNodes>
            0 -1 140 -7.0712506771087646e-02</internalNodes>
          <leafValues>
            9.0141862630844116e-01 -5.0021186470985413e-02</leafValues></_>
        <_>
          <internalNodes>
            0 -1 375 -3.6586425267159939e-04</internalNodes>
          <leafValues>
            -5.6134408712387085e-01 1.1033337563276291e-01</leafValues></_></weakClassifiers></_>
    <!-- stage 16 -->
    <_>
      <maxWeakCount>23</maxWeakCount>
      <stageThreshold>-8.0576241016387939e-01</stageThreshold>
      <weakClassifiers>
        <_>
          <internalNodes>
            0 -1 50 3.7754535675048828e-02</internalNodes>
          <leafValues>
            -1.5911873430013657e-02 7.2906404733657837e-01</leafValues></_>
        <_>
          <internalNodes>
            0 -1 368 -1.4532509446144104e-01</internalNodes>
          <leafValues>
            7.5709521770477295e-01 -9.4722047448158264e-02</leafValues></_>
        <_>
          <internalNodes>
            0 -1 8 -8.4315678104758263e-03</internalNodes>
          <leafValues>
            4.1600924730300903e-01 -2.2678494453430176e-01</leafValues></_>
        <_>
          <internalNodes>
            0 -1 107 -1.1636483577603940e-05</internalNodes>
          <leafValues>
            2.6142638921737671e-01 -2.9715377092361450e-01</leafValues></_>
        <_>
          <internalNodes>
            0 -1 104 -6.8815648555755615e-02</internalNodes>
          <leafValues>
            3.1894066929817200e-01 -3.0189493298530579e-01</leafValues></_>
        <_>
          <internalNodes>
            0 -1 186 3.7291612476110458e-02</internalNodes>
          <leafValues>
            -1.6872444748878479e-01 5.5010402202606201e-01</leafValues></_>
        <_>
          <internalNodes>
            0 -1 482 6.7801689729094505e-03</internalNodes>
          <leafValues>
            -1.0093768686056137e-01 7.1169137954711914e-01</leafValues></_>
        <_>
          <internalNodes>
            0 -1 67 -8.4124592831358314e-05</internalNodes>
          <leafValues>
            -3.7122139334678650e-01 2.1329136192798615e-01</leafValues></_>
        <_>
          <internalNodes>
            0 -1 194 3.0712975421920419e-04</internalNodes>
          <leafValues>
            -3.3553466200828552e-01 2.1942633390426636e-01</leafValues></_>
        <_>
          <internalNodes>
            0 -1 213 -1.8954896926879883e-01</internalNodes>
          <leafValues>
            7.3166084289550781e-01 -9.4436675310134888e-02</leafValues></_>
        <_>
          <internalNodes>
            0 -1 159 1.0824686847627163e-02</internalNodes>
          <leafValues>
            -2.4688701331615448e-01 3.1540739536285400e-01</leafValues></_>
        <_>
          <internalNodes>
            0 -1 29 -3.4729944309219718e-04</internalNodes>
          <leafValues>
            -4.8196548223495483e-01 1.2977115809917450e-01</leafValues></_>
        <_>
          <internalNodes>
            0 -1 115 -3.5410160198807716e-03</internalNodes>
          <leafValues>
            3.2086554169654846e-01 -2.0801572501659393e-01</leafValues></_>
        <_>
          <internalNodes>
            0 -1 310 -1.4052086044102907e-04</internalNodes>
          <leafValues>
            -4.1865098476409912e-01 1.6832619905471802e-01</leafValues></_>
        <_>
          <internalNodes>
            0 -1 431 -2.8278371246415190e-05</internalNodes>
          <leafValues>
            2.2844505310058594e-01 -2.7395802736282349e-01</leafValues></_>
        <_>
          <internalNodes>
            0 -1 246 4.1082724928855896e-03</internalNodes>
          <leafValues>
            -2.0964461565017700e-01 3.2330575585365295e-01</leafValues></_>
        <_>
          <internalNodes>
            0 -1 170 -4.9587044486543164e-05</internalNodes>
          <leafValues>
            -3.7152537703514099e-01 1.6366261243820190e-01</leafValues></_>
        <_>
          <internalNodes>
            0 -1 69 2.4408590979874134e-03</internalNodes>
          <leafValues>
            -1.5555761754512787e-01 3.3728229999542236e-01</leafValues></_>
        <_>
          <internalNodes>
            0 -1 335 5.1904553547501564e-03</internalNodes>
          <leafValues>
            -2.0040825009346008e-01 2.7099019289016724e-01</leafValues></_>
        <_>
          <internalNodes>
            0 -1 468 4.6819662675261497e-03</internalNodes>
          <leafValues>
            -2.3171399533748627e-01 2.3117737472057343e-01</leafValues></_>
        <_>
          <internalNodes>
            0 -1 19 1.6075067222118378e-02</internalNodes>
          <leafValues>
            8.3059363067150116e-02 -7.3299860954284668e-01</leafValues></_>
        <_>
          <internalNodes>
            0 -1 464 1.1999441776424646e-03</internalNodes>
          <leafValues>
            7.1191765367984772e-02 -6.5194320678710938e-01</leafValues></_>
        <_>
          <internalNodes>
            0 -1 337 -5.6061614304780960e-04</internalNodes>
          <leafValues>
            2.9203090071678162e-01 -1.9497655332088470e-01</leafValues></_></weakClassifiers></_>
    <!-- stage 17 -->
    <_>
      <maxWeakCount>23</maxWeakCount>
      <stageThreshold>-8.8611984252929688e-01</stageThreshold>
      <weakClassifiers>
        <_>
          <internalNodes>
            0 -1 96 -1.4405768364667892e-02</internalNodes>
          <leafValues>
            6.6283524036407471e-01 -8.9871615171432495e-02</leafValues></_>
        <_>
          <internalNodes>
            0 -1 48 1.1663395911455154e-02</internalNodes>
          <leafValues>
            -2.0353339612483978e-01 4.0930572152137756e-01</leafValues></_>
        <_>
          <internalNodes>
            0 -1 247 3.5537821240723133e-03</internalNodes>
          <leafValues>
            -4.5293083786964417e-01 1.8968366086483002e-01</leafValues></_>
        <_>
          <internalNodes>
            0 -1 14 -2.7415351942181587e-03</internalNodes>
          <leafValues>
            2.1261239051818848e-01 -3.5907706618309021e-01</leafValues></_>
        <_>
          <internalNodes>
            0 -1 373 -1.7542490968480706e-04</internalNodes>
          <leafValues>
            -4.1714322566986084e-01 1.6182443499565125e-01</leafValues></_>
        <_>
          <internalNodes>
            0 -1 2 -1.1948870815103874e-04</internalNodes>
          <leafValues>
            -4.1337901353836060e-01 1.1814934015274048e-01</leafValues></_>
        <_>
          <internalNodes>
            0 -1 423 -1.7472401261329651e-02</internalNodes>
          <leafValues>
            5.9124445915222168e-01 -6.7056097090244293e-02</leafValues></_>
        <_>
          <internalNodes>
            0 -1 222 -1.0682356078177691e-03</internalNodes>
          <leafValues>
            -6.6662317514419556e-01 8.9130893349647522e-02</leafValues></_>
        <_>
          <internalNodes>
            0 -1 355 5.2053257822990417e-03</internalNodes>
          <leafValues>
            -4.9848252534866333e-01 1.2074630707502365e-01</leafValues></_>
        <_>
          <internalNodes>
            0 -1 195 8.8539498392492533e-04</internalNodes>
          <leafValues>
            -2.7672958374023438e-01 2.2927145659923553e-01</leafValues></_>
        <_>
          <internalNodes>
            0 -1 233 5.5973706766963005e-03</internalNodes>
          <leafValues>
            -1.8972761929035187e-01 3.2892757654190063e-01</leafValues></_>
        <_>
          <internalNodes>
            0 -1 273 -1.1415833607316017e-02</internalNodes>
          <leafValues>
            -7.0137584209442139e-01 8.5545621812343597e-02</leafValues></_>
        <_>
          <internalNodes>
            0 -1 141 -1.0882187780225649e-05</internalNodes>
          <leafValues>
            2.4738095700740814e-01 -2.1711449325084686e-01</leafValues></_>
        <_>
          <internalNodes>
            0 -1 206 -8.6521152406930923e-03</internalNodes>
          <leafValues>
            5.6441026926040649e-01 -1.0564821958541870e-01</leafValues></_>
        <_>
          <internalNodes>
            0 -1 59 -5.3977442439645529e-04</internalNodes>
          <leafValues>
            -4.2393752932548523e-01 1.5397939085960388e-01</leafValues></_>
        <_>
          <internalNodes>
            0 -1 59 1.3772826641798019e-03</internalNodes>
          <leafValues>
            1.0660427063703537e-01 -5.9848171472549438e-01</leafValues></_>
        <_>
          <internalNodes>
            0 -1 80 -3.0203755013644695e-03</internalNodes>
          <leafValues>
            3.2803201675415039e-01 -1.8645493686199188e-01</leafValues></_>
        <_>
          <internalNodes>
            0 -1 218 1.0697213838284370e-05</internalNodes>
          <leafValues>
            -3.5553500056266785e-01 1.9591496884822845e-01</leafValues></_>
        <_>
          <internalNodes>
            0 -1 108 1.5702443197369576e-02</internalNodes>
          <leafValues>
            -1.1962701380252838e-01 5.4973703622817993e-01</leafValues></_>
        <_>
          <internalNodes>
            0 -1 87 2.5724639272084460e-05</internalNodes>
          <leafValues>
            -1.7530308663845062e-01 3.3135277032852173e-01</leafValues></_>
        <_>
          <internalNodes>
            0 -1 319 2.3132520727813244e-03</internalNodes>
          <leafValues>
            -1.5558683872222900e-01 3.6720731854438782e-01</leafValues></_>
        <_>
          <internalNodes>
            0 -1 323 -1.7138860421255231e-03</internalNodes>
          <leafValues>
            3.2539212703704834e-01 -1.8271717429161072e-01</leafValues></_>
        <_>
          <internalNodes>
            0 -1 36 -7.0872843265533447e-02</internalNodes>
          <leafValues>
            3.0684310197830200e-01 -1.8851612508296967e-01</leafValues></_></weakClassifiers></_>
    <!-- stage 18 -->
    <_>
      <maxWeakCount>25</maxWeakCount>
      <stageThreshold>-8.4350430965423584e-01</stageThreshold>
      <weakClassifiers>
        <_>
          <internalNodes>
            0 -1 146 1.0906258970499039e-01</internalNodes>
          <leafValues>
            -8.5043989121913910e-02 6.3031423091888428e-01</leafValues></_>
        <_>
          <internalNodes>
            0 -1 28 -1.2721280567348003e-02</internalNodes>
          <leafValues>
            1.8794164061546326e-01 -6.3796490430831909e-01</leafValues></_>
        <_>
          <internalNodes>
            0 -1 119 -1.0808463208377361e-02</internalNodes>
          <leafValues>
            5.0425028800964355e-01 -1.9268563389778137e-01</leafValues></_>
        <_>
          <internalNodes>
            0 -1 497 -8.3248305600136518e-05</internalNodes>
          <leafValues>
            -4.8224982619285583e-01 1.5460613369941711e-01</leafValues></_>
        <_>
          <internalNodes>
            0 -1 304 -1.6344600589945912e-04</internalNodes>
          <leafValues>
            3.2942092418670654e-01 -2.0024262368679047e-01</leafValues></_>
        <_>
          <internalNodes>
            0 -1 351 -1.1691534018609673e-04</internalNodes>
          <leafValues>
            -3.7934374809265137e-01 1.6594360768795013e-01</leafValues></_>
        <_>
          <internalNodes>
            0 -1 116 9.1375671327114105e-03</internalNodes>
          <leafValues>
            -1.6289873421192169e-01 4.1362726688385010e-01</leafValues></_>
        <_>
          <internalNodes>
            0 -1 193 -5.3925305837765336e-04</internalNodes>
          <leafValues>
            -5.2022194862365723e-01 1.1512870341539383e-01</leafValues></_>
        <_>
          <internalNodes>
            0 -1 196 -2.9428052902221680e-01</internalNodes>
          <leafValues>
            3.7456393241882324e-01 -1.5258233249187469e-01</leafValues></_>
        <_>
          <internalNodes>
            0 -1 97 -4.3379710987210274e-03</internalNodes>
          <leafValues>
            -1.5049377083778381e-01 4.5477297902107239e-01</leafValues></_>
        <_>
          <internalNodes>
            0 -1 100 9.4025637954473495e-03</internalNodes>
          <leafValues>
            -2.4020136892795563e-01 2.5154802203178406e-01</leafValues></_>
        <_>
          <internalNodes>
            0 -1 173 8.3289749920368195e-02</internalNodes>
          <leafValues>
            -1.5106043219566345e-01 4.9039864540100098e-01</leafValues></_>
        <_>
          <internalNodes>
            0 -1 112 -2.8476377949118614e-02</internalNodes>
          <leafValues>
            3.2212316989898682e-01 -2.1057231724262238e-01</leafValues></_>
        <_>
          <internalNodes>
            0 -1 278 3.6665465682744980e-02</internalNodes>
          <leafValues>
            -3.0355325341224670e-01 2.1451418101787567e-01</leafValues></_>
        <_>
          <internalNodes>
            0 -1 419 -1.1474960956547875e-05</internalNodes>
          <leafValues>
            2.1216417849063873e-01 -2.8798514604568481e-01</leafValues></_>
        <_>
          <internalNodes>
            0 -1 367 1.9997756462544203e-03</internalNodes>
          <leafValues>
            -2.8154730796813965e-01 2.2522997856140137e-01</leafValues></_>
        <_>
          <internalNodes>
            0 -1 155 -3.0379926785826683e-02</internalNodes>
          <leafValues>
            5.3723347187042236e-01 -1.1444675177335739e-01</leafValues></_>
        <_>
          <internalNodes>
            0 -1 245 5.1577831618487835e-03</internalNodes>
          <leafValues>
            -3.8556101918220520e-01 1.5959912538528442e-01</leafValues></_>
        <_>
          <internalNodes>
            0 -1 424 -6.8088676780462265e-03</internalNodes>
          <leafValues>
            2.2996255755424500e-01 -2.4284851551055908e-01</leafValues></_>
        <_>
          <internalNodes>
            0 -1 479 -1.3985059922561049e-04</internalNodes>
          <leafValues>
            -4.0519207715988159e-01 1.5551257133483887e-01</leafValues></_>
        <_>
          <internalNodes>
            0 -1 391 -2.9862148221582174e-04</internalNodes>
          <leafValues>
            -6.6386860609054565e-01 8.5385918617248535e-02</leafValues></_>
        <_>
          <internalNodes>
            0 -1 363 -1.2196468189358711e-02</internalNodes>
          <leafValues>
            -3.8899642229080200e-01 1.4320115745067596e-01</leafValues></_>
        <_>
          <internalNodes>
            0 -1 84 9.8303682170808315e-04</internalNodes>
          <leafValues>
            9.1861121356487274e-02 -5.4872167110443115e-01</leafValues></_>
        <_>
          <internalNodes>
            0 -1 126 8.0745965242385864e-03</internalNodes>
          <leafValues>
            -1.2854582071304321e-01 4.7140812873840332e-01</leafValues></_>
        <_>
          <internalNodes>
            0 -1 449 -3.1671100296080112e-03</internalNodes>
          <leafValues>
            -7.8002357482910156e-01 7.6923020184040070e-02</leafValues></_></weakClassifiers></_>
    <!-- stage 19 -->
    <_>
      <maxWeakCount>26</maxWeakCount>
      <stageThreshold>-1.0008534193038940e+00</stageThreshold>
      <weakClassifiers>
        <_>
          <internalNodes>
            0 -1 435 5.2221748046576977e-03</internalNodes>
          <leafValues>
            -2.5110131502151489e-01 5.1625490188598633e-01</leafValues></_>
        <_>
          <internalNodes>
            0 -1 219 6.6843681037425995e-02</internalNodes>
          <leafValues>
            -2.6821008324623108e-01 4.0766099095344543e-01</leafValues></_>
        <_>
          <internalNodes>
            0 -1 360 4.2986318469047546e-02</internalNodes>
          <leafValues>
            1.4753204584121704e-01 -5.7590228319168091e-01</leafValues></_>
        <_>
          <internalNodes>
            0 -1 156 5.4544523358345032e-02</internalNodes>
          <leafValues>
            -2.9115948081016541e-01 2.5545772910118103e-01</leafValues></_>
        <_>
          <internalNodes>
            0 -1 253 4.8414990305900574e-04</internalNodes>
          <leafValues>
            -3.0832374095916748e-01 2.1132990717887878e-01</leafValues></_>
        <_>
          <internalNodes>
            0 -1 82 1.5126672806218266e-03</internalNodes>
          <leafValues>
            7.6650068163871765e-02 -7.4081999063491821e-01</leafValues></_>
        <_>
          <internalNodes>
            0 -1 71 -1.3794144615530968e-02</internalNodes>
          <leafValues>
            6.1796540021896362e-01 -1.1044631898403168e-01</leafValues></_>
        <_>
          <internalNodes>
            0 -1 151 -2.0214435644447803e-03</internalNodes>
          <leafValues>
            2.0426754653453827e-01 -4.1761937737464905e-01</leafValues></_>
        <_>
          <internalNodes>
            0 -1 64 -2.0631051063537598e-01</internalNodes>
          <leafValues>
            -1. 5.4197113960981369e-02</leafValues></_>
        <_>
          <internalNodes>
            0 -1 162 -7.2254039347171783e-02</internalNodes>
          <leafValues>
            4.1582384705543518e-01 -1.6108816862106323e-01</leafValues></_>
        <_>
          <internalNodes>
            0 -1 191 3.6425234284251928e-03</internalNodes>
          <leafValues>
            -1.9196845591068268e-01 2.9277661442756653e-01</leafValues></_>
        <_>
          <internalNodes>
            0 -1 305 -1.3555228710174561e-01</internalNodes>
          <leafValues>
            8.6003518104553223e-01 -6.6445611417293549e-02</leafValues></_>
        <_>
          <internalNodes>
            0 -1 358 -1.1206544513697736e-05</internalNodes>
          <leafValues>
            3.1709557771682739e-01 -1.7260414361953735e-01</leafValues></_>
        <_>
          <internalNodes>
            0 -1 451 2.9678441933356225e-05</internalNodes>
          <leafValues>
            -2.2479969263076782e-01 2.5573408603668213e-01</leafValues></_>
        <_>
          <internalNodes>
            0 -1 266 6.6893100738525391e-02</internalNodes>
          <leafValues>
            1.1763076484203339e-01 -5.4079538583755493e-01</leafValues></_>
        <_>
          <internalNodes>
            0 -1 295 3.7256239447742701e-03</internalNodes>
          <leafValues>
            -1.4912159740924835e-01 3.4754049777984619e-01</leafValues></_>
        <_>
          <internalNodes>
            0 -1 440 4.8561538569629192e-03</internalNodes>
          <leafValues>
            7.4933946132659912e-02 -7.0568776130676270e-01</leafValues></_>
        <_>
          <internalNodes>
            0 -1 177 -1.2728932779282331e-04</internalNodes>
          <leafValues>
            -3.8454040884971619e-01 1.2189096212387085e-01</leafValues></_>
        <_>
          <internalNodes>
            0 -1 183 1.4751154184341431e-01</internalNodes>
          <leafValues>
            -5.3376127034425735e-02 9.1040760278701782e-01</leafValues></_>
        <_>
          <internalNodes>
            0 -1 129 6.4358767122030258e-04</internalNodes>
          <leafValues>
            6.9173544645309448e-02 -7.6129674911499023e-01</leafValues></_>
        <_>
          <internalNodes>
            0 -1 237 1.0387663678557146e-05</internalNodes>
          <leafValues>
            -2.0614722371101379e-01 2.4161794781684875e-01</leafValues></_>
        <_>
          <internalNodes>
            0 -1 298 -5.4684351198375225e-03</internalNodes>
          <leafValues>
            4.3512904644012451e-01 -1.1322773247957230e-01</leafValues></_>
        <_>
          <internalNodes>
            0 -1 55 2.4169579774024896e-05</internalNodes>
          <leafValues>
            -2.0006521046161652e-01 2.3124808073043823e-01</leafValues></_>
        <_>
          <internalNodes>
            0 -1 276 3.5296159330755472e-04</internalNodes>
          <leafValues>
            -2.2949965298175812e-01 1.9556190073490143e-01</leafValues></_>
        <_>
          <internalNodes>
            0 -1 389 -5.1918008830398321e-04</internalNodes>
          <leafValues>
            -6.3155156373977661e-01 7.6849810779094696e-02</leafValues></_>
        <_>
          <internalNodes>
            0 -1 415 -2.3402655642712489e-05</internalNodes>
          <leafValues>
            2.8301182389259338e-01 -1.7294269800186157e-01</leafValues></_></weakClassifiers></_>
    <!-- stage 20 -->
    <_>
      <maxWeakCount>25</maxWeakCount>
      <stageThreshold>-8.7703067064285278e-01</stageThreshold>
      <weakClassifiers>
        <_>
          <internalNodes>
            0 -1 261 3.5286524798721075e-03</internalNodes>
          <leafValues>
            -1.8829981982707977e-01 5.7100594043731689e-01</leafValues></_>
        <_>
          <internalNodes>
            0 -1 148 -5.1180091686546803e-03</internalNodes>
          <leafValues>
            3.4293648600578308e-01 -3.1034675240516663e-01</leafValues></_>
        <_>
          <internalNodes>
            0 -1 310 1.2112146941944957e-04</internalNodes>
          <leafValues>
            1.5650695562362671e-01 -4.4377493858337402e-01</leafValues></_>
        <_>
          <internalNodes>
            0 -1 353 4.4940346851944923e-03</internalNodes>
          <leafValues>
            9.5547281205654144e-02 -6.6712409257888794e-01</leafValues></_>
        <_>
          <internalNodes>
            0 -1 11 -3.4728988539427519e-03</internalNodes>
          <leafValues>
            3.9999791979789734e-01 -1.8786649405956268e-01</leafValues></_>
        <_>
          <internalNodes>
            0 -1 35 -2.6440358161926270e-01</internalNodes>
          <leafValues>
            7.8731131553649902e-01 -1.2653340399265289e-01</leafValues></_>
        <_>
          <internalNodes>
            0 -1 168 -2.4945346638560295e-02</internalNodes>
          <leafValues>
            4.2954018712043762e-01 -1.6972525417804718e-01</leafValues></_>
        <_>
          <internalNodes>
            0 -1 398 -5.2619833499193192e-02</internalNodes>
          <leafValues>
            3.4361013770103455e-01 -2.5599387288093567e-01</leafValues></_>
        <_>
          <internalNodes>
            0 -1 39 9.6656791865825653e-02</internalNodes>
          <leafValues>
            -1.8877232074737549e-01 4.1354772448539734e-01</leafValues></_>
        <_>
          <internalNodes>
            0 -1 24 -8.0167297273874283e-03</internalNodes>
          <leafValues>
            -5.5536222457885742e-01 1.3623888790607452e-01</leafValues></_>
        <_>
          <internalNodes>
            0 -1 192 3.0343271791934967e-03</internalNodes>
          <leafValues>
            -2.0918102562427521e-01 3.0170640349388123e-01</leafValues></_>
        <_>
          <internalNodes>
            0 -1 262 -1.0988484973495360e-05</internalNodes>
          <leafValues>
            2.5275078415870667e-01 -2.4281628429889679e-01</leafValues></_>
        <_>
          <internalNodes>
            0 -1 387 1.3351261615753174e-02</internalNodes>
          <leafValues>
            -9.1232024133205414e-02 6.8406867980957031e-01</leafValues></_>
        <_>
          <internalNodes>
            0 -1 450 -9.2006157501600683e-05</internalNodes>
          <leafValues>
            -3.4185329079627991e-01 1.7967769503593445e-01</leafValues></_>
        <_>
          <internalNodes>
            0 -1 102 2.9864152893424034e-03</internalNodes>
          <leafValues>
            -2.6937422156333923e-01 2.1104396879673004e-01</leafValues></_>
        <_>
          <internalNodes>
            0 -1 101 1.3752623635809869e-04</internalNodes>
          <leafValues>
            -2.0309357345104218e-01 3.3881941437721252e-01</leafValues></_>
        <_>
          <internalNodes>
            0 -1 40 -1.4989826083183289e-01</internalNodes>
          <leafValues>
            5.4971325397491455e-01 -1.0651648789644241e-01</leafValues></_>
        <_>
          <internalNodes>
            0 -1 91 1.4818025752902031e-02</internalNodes>
          <leafValues>
            8.1007905304431915e-02 -8.6283886432647705e-01</leafValues></_>
        <_>
          <internalNodes>
            0 -1 436 -2.4108863435685635e-03</internalNodes>
          <leafValues>
            3.3831453323364258e-01 -1.6497330367565155e-01</leafValues></_>
        <_>
          <internalNodes>
            0 -1 385 1.7800784553401172e-04</internalNodes>
          <leafValues>
            -1.4686171710491180e-01 3.4635308384895325e-01</leafValues></_>
        <_>
          <internalNodes>
            0 -1 157 8.6479034507647157e-05</internalNodes>
          <leafValues>
            1.7723515629768372e-01 -3.2859027385711670e-01</leafValues></_>
        <_>
          <internalNodes>
            0 -1 342 -2.0196858793497086e-02</internalNodes>
          <leafValues>
            -6.4246839284896851e-01 7.8010454773902893e-02</leafValues></_>
        <_>
          <internalNodes>
            0 -1 215 6.2733367085456848e-03</internalNodes>
          <leafValues>
            -2.1206802129745483e-01 3.0065879225730896e-01</leafValues></_>
        <_>
          <internalNodes>
            0 -1 372 9.6056684851646423e-03</internalNodes>
          <leafValues>
            -2.2737543284893036e-01 2.6601570844650269e-01</leafValues></_>
        <_>
          <internalNodes>
            0 -1 326 -1.0908633157669101e-05</internalNodes>
          <leafValues>
            2.8681182861328125e-01 -1.9264554977416992e-01</leafValues></_></weakClassifiers></_>
    <!-- stage 21 -->
    <_>
      <maxWeakCount>22</maxWeakCount>
      <stageThreshold>-8.3451724052429199e-01</stageThreshold>
      <weakClassifiers>
        <_>
          <internalNodes>
            0 -1 176 4.0282137691974640e-02</internalNodes>
          <leafValues>
            -1.7813050746917725e-01 5.8536583185195923e-01</leafValues></_>
        <_>
          <internalNodes>
            0 -1 4 -6.1338879168033600e-03</internalNodes>
          <leafValues>
            6.1735051870346069e-01 -1.1606158316135406e-01</leafValues></_>
        <_>
          <internalNodes>
            0 -1 106 1.3335337280295789e-04</internalNodes>
          <leafValues>
            1.6644850373268127e-01 -4.8055317997932434e-01</leafValues></_>
        <_>
          <internalNodes>
            0 -1 414 -3.4346594475209713e-03</internalNodes>
          <leafValues>
            3.8968914747238159e-01 -2.0567765831947327e-01</leafValues></_>
        <_>
          <internalNodes>
            0 -1 462 -1.0795641173899639e-05</internalNodes>
          <leafValues>
            2.3439615964889526e-01 -2.9870516061782837e-01</leafValues></_>
        <_>
          <internalNodes>
            0 -1 227 1.3396334648132324e-01</internalNodes>
          <leafValues>
            -2.2186113893985748e-01 3.5404855012893677e-01</leafValues></_>
        <_>
          <internalNodes>
            0 -1 487 2.0861044526100159e-02</internalNodes>
          <leafValues>
            9.6629180014133453e-02 -7.4972015619277954e-01</leafValues></_>
        <_>
          <internalNodes>
            0 -1 255 1.0403350461274385e-03</internalNodes>
          <leafValues>
            -2.7774530649185181e-01 2.2055386006832123e-01</leafValues></_>
        <_>
          <internalNodes>
            0 -1 171 -3.0306976987048984e-04</internalNodes>
          <leafValues>
            -4.3587645888328552e-01 1.1865290999412537e-01</leafValues></_>
        <_>
          <internalNodes>
            0 -1 169 1.2137988960603252e-05</internalNodes>
          <leafValues>
            -3.3296746015548706e-01 1.7330774664878845e-01</leafValues></_>
        <_>
          <internalNodes>
            0 -1 404 1.0502606164664030e-03</internalNodes>
          <leafValues>
            -2.6336842775344849e-01 2.5443097949028015e-01</leafValues></_>
        <_>
          <internalNodes>
            0 -1 302 1.6254831571131945e-03</internalNodes>
          <leafValues>
            -1.4406621456146240e-01 3.4825798869132996e-01</leafValues></_>
        <_>
          <internalNodes>
            0 -1 365 -1.9136302871629596e-03</internalNodes>
          <leafValues>
            3.4382718801498413e-01 -1.6653953492641449e-01</leafValues></_>
        <_>
          <internalNodes>
            0 -1 99 3.1073126941919327e-02</internalNodes>
          <leafValues>
            1.1558266729116440e-01 -6.0161936283111572e-01</leafValues></_>
        <_>
          <internalNodes>
            0 -1 251 -1.1346564861014485e-05</internalNodes>
          <leafValues>
            1.7090220749378204e-01 -2.9483136534690857e-01</leafValues></_>
        <_>
          <internalNodes>
            0 -1 18 -1.7268371582031250e-01</internalNodes>
          <leafValues>
            5.5865377187728882e-01 -9.7288832068443298e-02</leafValues></_>
        <_>
          <internalNodes>
            0 -1 242 4.8080556094646454e-02</internalNodes>
          <leafValues>
            8.4617912769317627e-02 -7.1080547571182251e-01</leafValues></_>
        <_>
          <internalNodes>
            0 -1 496 -4.2409970774315298e-05</internalNodes>
          <leafValues>
            -2.7944356203079224e-01 1.7661084234714508e-01</leafValues></_>
        <_>
          <internalNodes>
            0 -1 461 -9.2608568957075477e-04</internalNodes>
          <leafValues>
            6.8261814117431641e-01 -8.4705866873264313e-02</leafValues></_>
        <_>
          <internalNodes>
            0 -1 223 2.0895688794553280e-03</internalNodes>
          <leafValues>
            9.7029864788055420e-02 -6.6943371295928955e-01</leafValues></_>
        <_>
          <internalNodes>
            0 -1 32 -1.7449457943439484e-01</internalNodes>
          <leafValues>
            -4.6536627411842346e-01 1.1326492577791214e-01</leafValues></_>
        <_>
          <internalNodes>
            0 -1 396 -6.3080303370952606e-03</internalNodes>
          <leafValues>
            1.0003390908241272e-01 -5.5062979459762573e-01</leafValues></_></weakClassifiers></_>
    <!-- stage 22 -->
    <_>
      <maxWeakCount>25</maxWeakCount>
      <stageThreshold>-8.1657040119171143e-01</stageThreshold>
      <weakClassifiers>
        <_>
          <internalNodes>
            0 -1 447 1.7403554171323776e-02</internalNodes>
          <leafValues>
            -1.5073528885841370e-01 5.3755521774291992e-01</leafValues></_>
        <_>
          <internalNodes>
            0 -1 145 5.8724917471408844e-04</internalNodes>
          <leafValues>
            -3.1644079089164734e-01 3.0414712429046631e-01</leafValues></_>
        <_>
          <internalNodes>
            0 -1 357 6.9865815341472626e-02</internalNodes>
          <leafValues>
            -3.4093761444091797e-01 2.5944215059280396e-01</leafValues></_>
        <_>
          <internalNodes>
            0 -1 57 -7.3017072281800210e-05</internalNodes>
          <leafValues>
            -5.6952518224716187e-01 1.3248661160469055e-01</leafValues></_>
        <_>
          <internalNodes>
            0 -1 73 9.7163196187466383e-04</internalNodes>
          <leafValues>
            1.1954846233129501e-01 -5.5138355493545532e-01</leafValues></_>
        <_>
          <internalNodes>
            0 -1 382 4.9621406942605972e-03</internalNodes>
          <leafValues>
            -1.3853803277015686e-01 4.9311217665672302e-01</leafValues></_>
        <_>
          <internalNodes>
            0 -1 52 -9.0443459339439869e-04</internalNodes>
          <leafValues>
            4.7523033618927002e-01 -1.5147408843040466e-01</leafValues></_>
        <_>
          <internalNodes>
            0 -1 149 -1.5834014862775803e-02</internalNodes>
          <leafValues>
            -1.6828188300132751e-01 4.4868788123130798e-01</leafValues></_>
        <_>
          <internalNodes>
            0 -1 133 4.0980260819196701e-03</internalNodes>
          <leafValues>
            -1.6505940258502960e-01 3.2649478316307068e-01</leafValues></_>
        <_>
          <internalNodes>
            0 -1 264 6.0464471578598022e-02</internalNodes>
          <leafValues>
            7.9188592731952667e-02 -6.6624158620834351e-01</leafValues></_>
        <_>
          <internalNodes>
            0 -1 325 1.4257970033213496e-03</internalNodes>
          <leafValues>
            -2.1200743317604065e-01 2.5600537657737732e-01</leafValues></_>
        <_>
          <internalNodes>
            0 -1 57 1.0563400428509340e-04</internalNodes>
          <leafValues>
            1.5100619196891785e-01 -3.7570318579673767e-01</leafValues></_>
        <_>
          <internalNodes>
            0 -1 254 -5.8623626828193665e-02</internalNodes>
          <leafValues>
            2.5543683767318726e-01 -2.2308790683746338e-01</leafValues></_>
        <_>
          <internalNodes>
            0 -1 154 -2.3984280414879322e-03</internalNodes>
          <leafValues>
            -1.6627518832683563e-01 2.8556650876998901e-01</leafValues></_>
        <_>
          <internalNodes>
            0 -1 122 -9.0452954173088074e-03</internalNodes>
          <leafValues>
            1.4047528803348541e-01 -3.4522309899330139e-01</leafValues></_>
        <_>
          <internalNodes>
            0 -1 230 1.0705268383026123e-01</internalNodes>
          <leafValues>
            -1.2533366680145264e-01 4.3207314610481262e-01</leafValues></_>
        <_>
          <internalNodes>
            0 -1 139 -1.9207948935218155e-04</internalNodes>
          <leafValues>
            -2.6459899544715881e-01 2.0444831252098083e-01</leafValues></_>
        <_>
          <internalNodes>
            0 -1 83 9.6425581723451614e-03</internalNodes>
          <leafValues>
            -1.3523678481578827e-01 3.5290426015853882e-01</leafValues></_>
        <_>
          <internalNodes>
            0 -1 390 4.3986100354231894e-04</internalNodes>
          <leafValues>
            8.7177559733390808e-02 -5.2734887599945068e-01</leafValues></_>
        <_>
          <internalNodes>
            0 -1 484 4.6395333483815193e-03</internalNodes>
          <leafValues>
            5.5757544934749603e-02 -8.6100488901138306e-01</leafValues></_>
        <_>
          <internalNodes>
            0 -1 475 1.3381946831941605e-02</internalNodes>
          <leafValues>
            -1.4441515505313873e-01 4.0289989113807678e-01</leafValues></_>
        <_>
          <internalNodes>
            0 -1 352 3.8513741455972195e-03</internalNodes>
          <leafValues>
            -3.4997692704200745e-01 1.9148205220699310e-01</leafValues></_>
        <_>
          <internalNodes>
            0 -1 401 -1.0252332685922738e-05</internalNodes>
          <leafValues>
            2.8504285216331482e-01 -1.9184169173240662e-01</leafValues></_>
        <_>
          <internalNodes>
            0 -1 282 4.8664957284927368e-03</internalNodes>
          <leafValues>
            -9.8341606557369232e-02 5.5467754602432251e-01</leafValues></_>
        <_>
          <internalNodes>
            0 -1 300 -3.2679282594472170e-03</internalNodes>
          <leafValues>
            4.1308093070983887e-01 -9.9507659673690796e-02</leafValues></_></weakClassifiers></_>
    <!-- stage 23 -->
    <_>
      <maxWeakCount>24</maxWeakCount>
      <stageThreshold>-7.8389328718185425e-01</stageThreshold>
      <weakClassifiers>
        <_>
          <internalNodes>
            0 -1 291 5.5705927312374115e-02</internalNodes>
          <leafValues>
            -5.3475935012102127e-02 6.8000000715255737e-01</leafValues></_>
        <_>
          <internalNodes>
            0 -1 83 4.1863135993480682e-03</internalNodes>
          <leafValues>
            -2.2782142460346222e-01 3.4702357649803162e-01</leafValues></_>
        <_>
          <internalNodes>
            0 -1 494 -4.9351310735801235e-05</internalNodes>
          <leafValues>
            -4.8524153232574463e-01 1.5339098870754242e-01</leafValues></_>
        <_>
          <internalNodes>
            0 -1 494 8.4929924923926592e-05</internalNodes>
          <leafValues>
            1.4511081576347351e-01 -4.3542161583900452e-01</leafValues></_>
        <_>
          <internalNodes>
            0 -1 12 -7.3683504015207291e-03</internalNodes>
          <leafValues>
            3.0343312025070190e-01 -2.1698638796806335e-01</leafValues></_>
        <_>
          <internalNodes>
            0 -1 131 -7.5997084379196167e-02</internalNodes>
          <leafValues>
            3.6359572410583496e-01 -2.3020878434181213e-01</leafValues></_>
        <_>
          <internalNodes>
            0 -1 47 -2.0228987932205200e-01</internalNodes>
          <leafValues>
            5.8654266595840454e-01 -1.2023659050464630e-01</leafValues></_>
        <_>
          <internalNodes>
            0 -1 446 -1.4533970504999161e-02</internalNodes>
          <leafValues>
            9.2088276147842407e-01 -6.3643634319305420e-02</leafValues></_>
        <_>
          <internalNodes>
            0 -1 416 5.0621759146451950e-04</internalNodes>
          <leafValues>
            -4.1354909539222717e-01 1.9622012972831726e-01</leafValues></_>
        <_>
          <internalNodes>
            0 -1 453 6.7908642813563347e-04</internalNodes>
          <leafValues>
            6.9254919886589050e-02 -6.9894224405288696e-01</leafValues></_>
        <_>
          <internalNodes>
            0 -1 441 5.5849913042038679e-04</internalNodes>
          <leafValues>
            1.2325962632894516e-01 -4.1599163413047791e-01</leafValues></_>
        <_>
          <internalNodes>
            0 -1 345 3.2228983938694000e-02</internalNodes>
          <leafValues>
            8.6072549223899841e-02 -5.8889222145080566e-01</leafValues></_>
        <_>
          <internalNodes>
            0 -1 128 -3.2906158594414592e-04</internalNodes>
          <leafValues>
            1.7953762412071228e-01 -2.8913563489913940e-01</leafValues></_>
        <_>
          <internalNodes>
            0 -1 318 -1.6945627331733704e-01</internalNodes>
          <leafValues>
            5.6132858991622925e-01 -8.5185155272483826e-02</leafValues></_>
        <_>
          <internalNodes>
            0 -1 268 2.0882959943264723e-03</internalNodes>
          <leafValues>
            -1.5959234535694122e-01 3.6660906672477722e-01</leafValues></_>
        <_>
          <internalNodes>
            0 -1 249 -1.2372173841868062e-05</internalNodes>
          <leafValues>
            1.7481234669685364e-01 -2.8524515032768250e-01</leafValues></_>
        <_>
          <internalNodes>
            0 -1 137 4.5846164226531982e-02</internalNodes>
          <leafValues>
            -6.5061762928962708e-02 7.3524135351181030e-01</leafValues></_>
        <_>
          <internalNodes>
            0 -1 455 -3.1456355936825275e-03</internalNodes>
          <leafValues>
            3.0551043152809143e-01 -1.4803944528102875e-01</leafValues></_>
        <_>
          <internalNodes>
            0 -1 491 -4.3451058445498347e-05</internalNodes>
          <leafValues>
            -3.9097192883491516e-01 1.3995419442653656e-01</leafValues></_>
        <_>
          <internalNodes>
            0 -1 425 1.0661844164133072e-02</internalNodes>
          <leafValues>
            5.7228527963161469e-02 -7.8428548574447632e-01</leafValues></_>
        <_>
          <internalNodes>
            0 -1 205 -1.1086057871580124e-02</internalNodes>
          <leafValues>
            6.6402137279510498e-01 -8.3771057426929474e-02</leafValues></_>
        <_>
          <internalNodes>
            0 -1 434 2.0533447241177782e-05</internalNodes>
          <leafValues>
            -1.5979519486427307e-01 2.8209942579269409e-01</leafValues></_>
        <_>
          <internalNodes>
            0 -1 386 1.2635390739887953e-03</internalNodes>
          <leafValues>
            -7.5325943529605865e-02 7.0178043842315674e-01</leafValues></_>
        <_>
          <internalNodes>
            0 -1 400 1.3310728718352038e-05</internalNodes>
          <leafValues>
            -2.2449146211147308e-01 2.1057760715484619e-01</leafValues></_></weakClassifiers></_>
    <!-- stage 24 -->
    <_>
      <maxWeakCount>25</maxWeakCount>
      <stageThreshold>-8.0538433790206909e-01</stageThreshold>
      <weakClassifiers>
        <_>
          <internalNodes>
            0 -1 477 -6.6069606691598892e-04</internalNodes>
          <leafValues>
            6.6037738323211670e-01 -9.6681095659732819e-02</leafValues></_>
        <_>
          <internalNodes>
            0 -1 265 1.1405759723857045e-03</internalNodes>
          <leafValues>
            -1.8642738461494446e-01 4.3761709332466125e-01</leafValues></_>
        <_>
          <internalNodes>
            0 -1 299 2.6980517432093620e-02</internalNodes>
          <leafValues>
            -3.5769635438919067e-01 2.1336340904235840e-01</leafValues></_>
        <_>
          <internalNodes>
            0 -1 490 5.4471936891786754e-05</internalNodes>
          <leafValues>
            1.4925807714462280e-01 -4.3262192606925964e-01</leafValues></_>
        <_>
          <internalNodes>
            0 -1 54 2.3332312703132629e-03</internalNodes>
          <leafValues>
            -2.9115167260169983e-01 2.1784998476505280e-01</leafValues></_>
        <_>
          <internalNodes>
            0 -1 260 -9.6639528870582581e-02</internalNodes>
          <leafValues>
            4.5201453566551208e-01 -1.6494438052177429e-01</leafValues></_>
        <_>
          <internalNodes>
            0 -1 492 -9.0545632701832801e-05</internalNodes>
          <leafValues>
            -3.2822665572166443e-01 2.4836426973342896e-01</leafValues></_>
        <_>
          <internalNodes>
            0 -1 120 -5.3564640693366528e-03</internalNodes>
          <leafValues>
            5.3798582404851913e-02 -6.3322824239730835e-01</leafValues></_>
        <_>
          <internalNodes>
            0 -1 405 1.3854509219527245e-02</internalNodes>
          <leafValues>
            -9.9917620420455933e-02 5.4349672794342041e-01</leafValues></_>
        <_>
          <internalNodes>
            0 -1 267 1.3658771291375160e-02</internalNodes>
          <leafValues>
            -2.7531683444976807e-01 2.4208961427211761e-01</leafValues></_>
        <_>
          <internalNodes>
            0 -1 138 -6.0303084552288055e-02</internalNodes>
          <leafValues>
            4.4722923636436462e-01 -1.2292618304491043e-01</leafValues></_>
        <_>
          <internalNodes>
            0 -1 393 -3.8636324461549520e-05</internalNodes>
          <leafValues>
            -3.0339393019676208e-01 1.8380354344844818e-01</leafValues></_>
        <_>
          <internalNodes>
            0 -1 394 -9.5784189179539680e-03</internalNodes>
          <leafValues>
            3.0762284994125366e-01 -1.8581379950046539e-01</leafValues></_>
        <_>
          <internalNodes>
            0 -1 178 1.7712379340082407e-03</internalNodes>
          <leafValues>
            -1.4690650999546051e-01 3.7350255250930786e-01</leafValues></_>
        <_>
          <internalNodes>
            0 -1 164 -4.8560155846644193e-05</internalNodes>
          <leafValues>
            2.3497782647609711e-01 -2.2058759629726410e-01</leafValues></_>
        <_>
          <internalNodes>
            0 -1 235 6.5400801599025726e-02</internalNodes>
          <leafValues>
            -9.6014499664306641e-02 5.3796362876892090e-01</leafValues></_>
        <_>
          <internalNodes>
            0 -1 78 8.1856697797775269e-02</internalNodes>
          <leafValues>
            6.9693028926849365e-02 -8.0932164192199707e-01</leafValues></_>
        <_>
          <internalNodes>
            0 -1 244 6.6580027341842651e-03</internalNodes>
          <leafValues>
            -1.9085854291915894e-01 2.8300046920776367e-01</leafValues></_>
        <_>
          <internalNodes>
            0 -1 429 1.3435516506433487e-02</internalNodes>
          <leafValues>
            -3.1186166405677795e-01 1.7511993646621704e-01</leafValues></_>
        <_>
          <internalNodes>
            0 -1 201 -4.3119405745528638e-05</internalNodes>
          <leafValues>
            1.3300815224647522e-01 -3.6826527118682861e-01</leafValues></_>
        <_>
          <internalNodes>
            0 -1 167 -7.9818442463874817e-04</internalNodes>
          <leafValues>
            -4.9056750535964966e-01 1.0092964023351669e-01</leafValues></_>
        <_>
          <internalNodes>
            0 -1 418 -5.1524583250284195e-03</internalNodes>
          <leafValues>
            4.6746909618377686e-01 -1.0931207239627838e-01</leafValues></_>
        <_>
          <internalNodes>
            0 -1 322 -1.0977820784319192e-04</internalNodes>
          <leafValues>
            2.4620515108108521e-01 -2.7105826139450073e-01</leafValues></_>
        <_>
          <internalNodes>
            0 -1 289 -2.6139037683606148e-02</internalNodes>
          <leafValues>
            -9.3417130410671234e-02 4.7109037637710571e-01</leafValues></_>
        <_>
          <internalNodes>
            0 -1 134 4.5964736491441727e-03</internalNodes>
          <leafValues>
            -4.4521811604499817e-01 1.3439638912677765e-01</leafValues></_></weakClassifiers></_>
    <!-- stage 25 -->
    <_>
      <maxWeakCount>19</maxWeakCount>
      <stageThreshold>-8.3191019296646118e-01</stageThreshold>
      <weakClassifiers>
        <_>
          <internalNodes>
            0 -1 111 1.9088782370090485e-02</internalNodes>
          <leafValues>
            -9.5729015767574310e-02 6.3970589637756348e-01</leafValues></_>
        <_>
          <internalNodes>
            0 -1 437 7.2627584449946880e-04</internalNodes>
          <leafValues>
            -3.5979375243186951e-01 2.8473266959190369e-01</leafValues></_>
        <_>
          <internalNodes>
            0 -1 333 -5.1030481699854136e-04</internalNodes>
          <leafValues>
            -6.6310590505599976e-01 1.1441288143396378e-01</leafValues></_>
        <_>
          <internalNodes>
            0 -1 465 5.2402885630726814e-03</internalNodes>
          <leafValues>
            -2.5719964504241943e-01 2.8747203946113586e-01</leafValues></_>
        <_>
          <internalNodes>
            0 -1 480 1.0745541658252478e-04</internalNodes>
          <leafValues>
            2.0862236618995667e-01 -3.6654761433601379e-01</leafValues></_>
        <_>
          <internalNodes>
            0 -1 412 2.5669202208518982e-02</internalNodes>
          <leafValues>
            -1.2470327317714691e-01 7.7508068084716797e-01</leafValues></_>
        <_>
          <internalNodes>
            0 -1 350 -4.3332929635653272e-05</internalNodes>
          <leafValues>
            -3.7420547008514404e-01 1.6445232927799225e-01</leafValues></_>
        <_>
          <internalNodes>
            0 -1 413 1.0795641173899639e-05</internalNodes>
          <leafValues>
            -2.3533041775226593e-01 2.5423109531402588e-01</leafValues></_>
        <_>
          <internalNodes>
            0 -1 3 4.3129608966410160e-03</internalNodes>
          <leafValues>
            6.1461240053176880e-02 -8.0403673648834229e-01</leafValues></_>
        <_>
          <internalNodes>
            0 -1 343 -2.3992015485418960e-05</internalNodes>
          <leafValues>
            2.1205250918865204e-01 -2.4297054111957550e-01</leafValues></_>
        <_>
          <internalNodes>
            0 -1 402 -2.8148942510597408e-04</internalNodes>
          <leafValues>
            -5.7354813814163208e-01 9.3456760048866272e-02</leafValues></_>
        <_>
          <internalNodes>
            0 -1 426 2.2729348856955767e-03</internalNodes>
          <leafValues>
            2.0233565568923950e-01 -2.8691247105598450e-01</leafValues></_>
        <_>
          <internalNodes>
            0 -1 366 6.1965924687683582e-03</internalNodes>
          <leafValues>
            -2.5764030218124390e-01 2.1748234331607819e-01</leafValues></_>
        <_>
          <internalNodes>
            0 -1 293 -1.0066473484039307e-01</internalNodes>
          <leafValues>
            2.9143005609512329e-01 -2.0063501596450806e-01</leafValues></_>
        <_>
          <internalNodes>
            0 -1 470 -7.2837948799133301e-02</internalNodes>
          <leafValues>
            -7.5222116708755493e-01 8.1089876592159271e-02</leafValues></_>
        <_>
          <internalNodes>
            0 -1 89 -1.0330339864594862e-04</internalNodes>
          <leafValues>
            -3.9479008316993713e-01 1.1991003155708313e-01</leafValues></_>
        <_>
          <internalNodes>
            0 -1 410 1.0908633157669101e-05</internalNodes>
          <leafValues>
            -1.9946791231632233e-01 2.7442049980163574e-01</leafValues></_>
        <_>
          <internalNodes>
            0 -1 85 2.2478066384792328e-02</internalNodes>
          <leafValues>
            8.4217883646488190e-02 -6.1301827430725098e-01</leafValues></_>
        <_>
          <internalNodes>
            0 -1 248 7.7143078669905663e-03</internalNodes>
          <leafValues>
            -1.0238489508628845e-01 5.3614884614944458e-01</leafValues></_></weakClassifiers></_>
    <!-- stage 26 -->
    <_>
      <maxWeakCount>27</maxWeakCount>
      <stageThreshold>-8.7327384948730469e-01</stageThreshold>
      <weakClassifiers>
        <_>
          <internalNodes>
            0 -1 125 1.0634559392929077e-01</internalNodes>
          <leafValues>
            -3.6414567381143570e-02 6.0707271099090576e-01</leafValues></_>
        <_>
          <internalNodes>
