<?xml version="1.0"?>
<opencv_storage>
<cascade>
  <stageType>BOOST</stageType>
  <featureType>HAAR</featureType>
  <height>24</height>
  <width>24</width>
  <stageParams>
    <boostType>GAB</boostType>
    <minHitRate>9.9500000476837158e-01</minHitRate>
    <maxFalseAlarm>5.0000000000000000e-01</maxFalseAlarm>
    <weightTrimRate>9.4999998807907104e-01</weightTrimRate>
    <maxDepth>1</maxDepth>
    <maxWeakCount>100</maxWeakCount></stageParams>
  <featureParams>
    <maxCatCount>0</maxCatCount>
    <featSize>1</featSize>
    <mode>BASIC</mode></featureParams>
  <stageNum>20</stageNum>
  <stages>
    <!-- stage 0 -->
    <_>
      <maxWeakCount>3</maxWeakCount>
      <stageThreshold>-1.4593231678009033e-01</stageThreshold>
      <weakClassifiers>
        <_>
          <internalNodes>
            0 -1 15 -2.5840749731287360e-04</internalNodes>
          <leafValues>
            -3.1034481525421143e-01 9.4366198778152466e-01</leafValues></_>
        <_>
          <internalNodes>
            0 -1 27 1.7121274024248123e-02</internalNodes>
          <leafValues>
            -5.2490687370300293e-01 8.8249289989471436e-01</leafValues></_>
        <_>
          <internalNodes>
            0 -1 19 -2.4417549138888717e-04</internalNodes>
          <leafValues>
            -5.6468743085861206e-01 8.7530326843261719e-01</leafValues></_></weakClassifiers></_>
    <!-- stage 1 -->
    <_>
      <maxWeakCount>3</maxWeakCount>
      <stageThreshold>-2.9399015475064516e-03</stageThreshold>
      <weakClassifiers>
        <_>
          <internalNodes>
            0 -1 26 9.5135048031806946e-03</internalNodes>
          <leafValues>
            -4.0740740299224854e-01 9.4520545005798340e-01</leafValues></_>
        <_>
          <internalNodes>
            0 -1 30 -4.7556626668665558e-05</internalNodes>
          <leafValues>
            -4.3839168548583984e-01 8.8736462593078613e-01</leafValues></_>
        <_>
          <internalNodes>
            0 -1 13 -1.8472028023097664e-04</internalNodes>
          <leafValues>
            -4.8289713263511658e-01 9.1079086065292358e-01</leafValues></_></weakClassifiers></_>
    <!-- stage 2 -->
    <_>
      <maxWeakCount>3</maxWeakCount>
      <stageThreshold>-2.0314468443393707e-01</stageThreshold>
      <weakClassifiers>
        <_>
          <internalNodes>
            0 -1 46 -3.7235335912555456e-04</internalNodes>
          <leafValues>
            -4.7826087474822998e-01 8.9610391855239868e-01</leafValues></_>
        <_>
          <internalNodes>
            0 -1 14 -1.5703814569860697e-03</internalNodes>
          <leafValues>
            -8.5250341892242432e-01 7.7047228813171387e-01</leafValues></_>
        <_>
          <internalNodes>
            0 -1 28 -3.1849108636379242e-02</internalNodes>
          <leafValues>
            1. -4.9535611271858215e-01</leafValues></_></weakClassifiers></_>
    <!-- stage 3 -->
    <_>
      <maxWeakCount>2</maxWeakCount>
      <stageThreshold>3.0586630105972290e-01</stageThreshold>
      <weakClassifiers>
        <_>
          <internalNodes>
            0 -1 5 1.0457744065206498e-04</internalNodes>
          <leafValues>
            8.7341773509979248e-01 -5.2380955219268799e-01</leafValues></_>
        <_>
          <internalNodes>
            0 -1 17 1.0676529258489609e-02</internalNodes>
          <leafValues>
            -5.6755143404006958e-01 9.0042668581008911e-01</leafValues></_></weakClassifiers></_>
    <!-- stage 4 -->
    <_>
      <maxWeakCount>4</maxWeakCount>
      <stageThreshold>-4.7245794534683228e-01</stageThreshold>
      <weakClassifiers>
        <_>
          <internalNodes>
            0 -1 10 -2.9068847652524710e-04</internalNodes>
          <leafValues>
            -4.2857143282890320e-01 8.4810125827789307e-01</leafValues></_>
        <_>
          <internalNodes>
            0 -1 32 -5.9288213378749788e-05</internalNodes>
          <leafValues>
            -4.5658522844314575e-01 9.2195332050323486e-01</leafValues></_>
        <_>
          <internalNodes>
            0 -1 41 -2.9331164114410058e-05</internalNodes>
          <leafValues>
            -4.6768790483474731e-01 8.8395357131958008e-01</leafValues></_>
        <_>
          <internalNodes>
            0 -1 12 5.3310079238144681e-05</internalNodes>
          <leafValues>
            8.9186173677444458e-01 -4.9815189838409424e-01</leafValues></_></weakClassifiers></_>
    <!-- stage 5 -->
    <_>
      <maxWeakCount>2</maxWeakCount>
      <stageThreshold>2.5395590066909790e-01</stageThreshold>
      <weakClassifiers>
        <_>
          <internalNodes>
            0 -1 0 -7.0441025309264660e-03</internalNodes>
          <leafValues>
            -7.1428573131561279e-01 9.2405062913894653e-01</leafValues></_>
        <_>
          <internalNodes>
            0 -1 11 1.1770369485020638e-02</internalNodes>
          <leafValues>
            -4.5465317368507385e-01 9.6824157238006592e-01</leafValues></_></weakClassifiers></_>
    <!-- stage 6 -->
    <_>
      <maxWeakCount>2</maxWeakCount>
      <stageThreshold>1.2469965219497681e-01</stageThreshold>
      <weakClassifiers>
        <_>
          <internalNodes>
            0 -1 24 -1.3867579400539398e-03</internalNodes>
          <leafValues>
            1. -2.3529411852359772e-01</leafValues></_>
        <_>
          <internalNodes>
            0 -1 50 1.6140464693307877e-02</internalNodes>
          <leafValues>
            7.5695413351058960e-01 -8.7530034780502319e-01</leafValues></_></weakClassifiers></_>
    <!-- stage 7 -->
    <_>
      <maxWeakCount>3</maxWeakCount>
      <stageThreshold>-4.1613215208053589e-01</stageThreshold>
      <weakClassifiers>
        <_>
          <internalNodes>
            0 -1 53 -4.7354362322948873e-05</internalNodes>
          <leafValues>
            -5.2380955219268799e-01 8.7341773509979248e-01</leafValues></_>
        <_>
          <internalNodes>
            0 -1 52 4.1326568461954594e-03</internalNodes>
          <leafValues>
            7.7654182910919189e-01 -8.1830650568008423e-01</leafValues></_>
        <_>
          <internalNodes>
            0 -1 47 -1.6396693536080420e-04</internalNodes>
          <leafValues>
            -6.6886448860168457e-01 7.9112225770950317e-01</leafValues></_></weakClassifiers></_>
    <!-- stage 8 -->
    <_>
      <maxWeakCount>3</maxWeakCount>
      <stageThreshold>-2.7284461259841919e-01</stageThreshold>
      <weakClassifiers>
        <_>
          <internalNodes>
            0 -1 38 1.5655769966542721e-03</internalNodes>
          <leafValues>
            -3.3333334326744080e-01 9.1780823469161987e-01</leafValues></_>
        <_>
          <internalNodes>
            0 -1 40 -2.3618841078132391e-04</internalNodes>
          <leafValues>
            -8.9175564050674438e-01 7.2063875198364258e-01</leafValues></_>
        <_>
          <internalNodes>
            0 -1 7 -1.4983171422500163e-04</internalNodes>
          <leafValues>
            -6.6015005111694336e-01 8.0616283416748047e-01</leafValues></_></weakClassifiers></_>
    <!-- stage 9 -->
    <_>
      <maxWeakCount>5</maxWeakCount>
      <stageThreshold>3.3968508243560791e-01</stageThreshold>
      <weakClassifiers>
        <_>
          <internalNodes>
            0 -1 8 -2.3935858916956931e-04</internalNodes>
          <leafValues>
            -5.0000000000000000e-01 8.5000002384185791e-01</leafValues></_>
        <_>
          <internalNodes>
            0 -1 9 -5.3641310660168529e-04</internalNodes>
          <leafValues>
            -5.1989024877548218e-01 8.3407580852508545e-01</leafValues></_>
        <_>
          <internalNodes>
            0 -1 4 1.8291236832737923e-02</internalNodes>
          <leafValues>
            -4.7861996293067932e-01 9.2616152763366699e-01</leafValues></_>
        <_>
          <internalNodes>
            0 -1 36 1.9127572886645794e-03</internalNodes>
          <leafValues>
            -3.3877214789390564e-01 1.</leafValues></_>
        <_>
          <internalNodes>
            0 -1 42 5.6376028805971146e-03</internalNodes>
          <leafValues>
            -5.2053457498550415e-01 8.2696741819381714e-01</leafValues></_></weakClassifiers></_>
    <!-- stage 10 -->
    <_>
      <maxWeakCount>2</maxWeakCount>
      <stageThreshold>1.6057634353637695e-01</stageThreshold>
      <weakClassifiers>
        <_>
          <internalNodes>
            0 -1 1 -2.5354354875162244e-04</internalNodes>
          <leafValues>
            -3.5714286565780640e-01 9.4444441795349121e-01</leafValues></_>
        <_>
          <internalNodes>
            0 -1 51 -1.5384075231850147e-03</internalNodes>
          <leafValues>
            -7.8386807441711426e-01 7.4630957841873169e-01</leafValues></_></weakClassifiers></_>
    <!-- stage 11 -->
    <_>
      <maxWeakCount>2</maxWeakCount>
      <stageThreshold>3.9287915825843811e-01</stageThreshold>
      <weakClassifiers>
        <_>
          <internalNodes>
            0 -1 29 1.1148661375045776e-02</internalNodes>
          <leafValues>
            -1.6666667163372040e-01 1.</leafValues></_>
        <_>
          <internalNodes>
            0 -1 34 -6.9942441768944263e-05</internalNodes>
          <leafValues>
            -6.0712081193923950e-01 7.9934620857238770e-01</leafValues></_></weakClassifiers></_>
    <!-- stage 12 -->
    <_>
      <maxWeakCount>3</maxWeakCount>
      <stageThreshold>-2.6290750503540039e-01</stageThreshold>
      <weakClassifiers>
        <_>
          <internalNodes>
            0 -1 44 9.8142167553305626e-04</internalNodes>
          <leafValues>
            -3.5714286565780640e-01 9.4444441795349121e-01</leafValues></_>
        <_>
          <internalNodes>
            0 -1 22 6.6524459980428219e-03</internalNodes>
          <leafValues>
            7.2384440898895264e-01 -8.7957358360290527e-01</leafValues></_>
        <_>
          <internalNodes>
            0 -1 23 4.4266018085181713e-03</internalNodes>
          <leafValues>
            -6.2960904836654663e-01 9.0271633863449097e-01</leafValues></_></weakClassifiers></_>
    <!-- stage 13 -->
    <_>
      <maxWeakCount>4</maxWeakCount>
      <stageThreshold>4.8649057745933533e-01</stageThreshold>
      <weakClassifiers>
        <_>
          <internalNodes>
            0 -1 43 1.3462164206430316e-03</internalNodes>
          <leafValues>
            -3.5714286565780640e-01 9.4444441795349121e-01</leafValues></_>
        <_>
          <internalNodes>
            0 -1 20 -1.2717453064396977e-03</internalNodes>
          <leafValues>
            -8.7267708778381348e-01 6.9779688119888306e-01</leafValues></_>
        <_>
          <internalNodes>
            0 -1 39 -5.8327117003500462e-03</internalNodes>
          <leafValues>
            -6.8994951248168945e-01 6.9397437572479248e-01</leafValues></_>
        <_>
          <internalNodes>
            0 -1 46 1.5400952543132007e-04</internalNodes>
          <leafValues>
            -5.4813778400421143e-01 1.</leafValues></_></weakClassifiers></_>
    <!-- stage 14 -->
    <_>
      <maxWeakCount>4</maxWeakCount>
      <stageThreshold>1.5743482112884521e-01</stageThreshold>
      <weakClassifiers>
        <_>
          <internalNodes>
            0 -1 48 1.4533050125464797e-04</internalNodes>
          <leafValues>
            8.2716047763824463e-01 -4.7368422150611877e-01</leafValues></_>
        <_>
          <internalNodes>
            0 -1 37 -4.1869908454827964e-04</internalNodes>
          <leafValues>
            -5.2615809440612793e-01 8.3075159788131714e-01</leafValues></_>
        <_>
          <internalNodes>
            0 -1 25 2.3989744659047574e-04</internalNodes>
          <leafValues>
            6.3296663761138916e-01 -7.3726332187652588e-01</leafValues></_>
        <_>
          <internalNodes>
            0 -1 21 -6.0277801821939647e-05</internalNodes>
          <leafValues>
            -7.6321393251419067e-01 6.2713426351547241e-01</leafValues></_></weakClassifiers></_>
    <!-- stage 15 -->
    <_>
      <maxWeakCount>3</maxWeakCount>
      <stageThreshold>-1.7174754291772842e-02</stageThreshold>
      <weakClassifiers>
        <_>
          <internalNodes>
            0 -1 35 1.0673115961253643e-02</internalNodes>
          <leafValues>
            -1.7647059261798859e-01 9.6969699859619141e-01</leafValues></_>
        <_>
          <internalNodes>
            0 -1 16 -3.5812324285507202e-01</internalNodes>
          <leafValues>
            -9.3346571922302246e-01 6.6031438112258911e-01</leafValues></_>
        <_>
          <internalNodes>
            0 -1 45 6.2939766794443130e-03</internalNodes>
          <leafValues>
            -5.0101852416992188e-01 1.</leafValues></_></weakClassifiers></_>
    <!-- stage 16 -->
    <_>
      <maxWeakCount>1</maxWeakCount>
      <stageThreshold>7.7528089284896851e-01</stageThreshold>
      <weakClassifiers>
        <_>
          <internalNodes>
            0 -1 2 4.0040010213851929e-01</internalNodes>
          <leafValues>
            7.7528089284896851e-01 -1.</leafValues></_></weakClassifiers></_>
    <!-- stage 17 -->
    <_>
      <maxWeakCount>2</maxWeakCount>
      <stageThreshold>1.3011495769023895e-01</stageThreshold>
      <weakClassifiers>
        <_>
          <internalNodes>
            0 -1 33 1.8078307039104402e-04</internalNodes>
          <leafValues>
            8.5000002384185791e-01 -5.0000000000000000e-01</leafValues></_>
        <_>
          <internalNodes>
            0 -1 18 3.0695595778524876e-03</internalNodes>
          <leafValues>
            7.7113050222396851e-01 -7.1988505125045776e-01</leafValues></_></weakClassifiers></_>
    <!-- stage 18 -->
    <_>
      <maxWeakCount>3</maxWeakCount>
      <stageThreshold>6.6457368433475494e-02</stageThreshold>
      <weakClassifiers>
        <_>
          <internalNodes>
            0 -1 31 -1.2084539979696274e-02</internalNodes>
          <leafValues>
            1. -5.0000000745058060e-02</leafValues></_>
        <_>
          <internalNodes>
            0 -1 3 -7.8311283141374588e-03</internalNodes>
          <leafValues>
            8.9246207475662231e-01 -3.5682672262191772e-01</leafValues></_>
        <_>
          <internalNodes>
            0 -1 49 9.5844557508826256e-03</internalNodes>
          <leafValues>
            6.7884898185729980e-01 -7.7600473165512085e-01</leafValues></_></weakClassifiers></_>
    <!-- stage 19 -->
    <_>
      <maxWeakCount>1</maxWeakCount>
      <stageThreshold>7.7528089284896851e-01</stageThreshold>
      <weakClassifiers>
        <_>
          <internalNodes>
            0 -1 6 -8.9442031458020210e-03</internalNodes>
          <leafValues>
            -1. 7.7528089284896851e-01</leafValues></_></weakClassifiers></_></stages>
  <features>
    <_>
      <rects>
        <_>
          0 0 1 14 -1.</_>
        <_>
          0 7 1 7 2.</_></rects>
      <tilted>0</tilted></_>
    <_>
      <rects>
        <_>
          0 0 6 1 -1.</_>
        <_>
          3 0 3 1 2.</_></rects>
      <tilted>0</tilted></_>
    <_>
      <rects>
        <_>
          0 0 24 19 -1.</_>
        <_>
          12 0 12 19 2.</_></rects>
      <tilted>0</tilted></_>
    <_>
      <rects>
        <_>
          0 4 6 18 -1.</_>
        <_>
          3 4 3 18 2.</_></rects>
      <tilted>0</tilted></_>
    <_>
      <rects>
        <_>
          0 6 10 16 -1.</_>
        <_>
          0 6 5 8 2.</_>
        <_>
          5 14 5 8 2.</_></rects>
      <tilted>0</tilted></_>
    <_>
      <rects>
        <_>
          0 11 1 4 -1.</_>
        <_>
          0 13 1 2 2.</_></rects>
      <tilted>0</tilted></_>
    <_>
      <rects>
        <_>
          0 11 1 12 -1.</_>
        <_>
          0 15 1 4 3.</_></rects>
      <tilted>0</tilted></_>
    <_>
      <rects>
        <_>
          0 14 15 8 -1.</_>
        <_>
          0 18 15 4 2.</_></rects>
      <tilted>0</tilted></_>
    <_>
      <rects>
        <_>
          0 15 2 6 -1.</_>
        <_>
          0 15 1 3 2.</_>
        <_>
          1 18 1 3 2.</_></rects>
      <tilted>0</tilted></_>
    <_>
      <rects>
        <_>
          0 19 10 2 -1.</_>
        <_>
          0 19 5 1 2.</_>
        <_>
          5 20 5 1 2.</_></rects>
      <tilted>0</tilted></_>
    <_>
      <rects>
        <_>
          1 0 6 1 -1.</_>
        <_>
          4 0 3 1 2.</_></rects>
      <tilted>0</tilted></_>
    <_>
      <rects>
        <_>
          1 9 16 12 -1.</_>
        <_>
          1 9 8 6 2.</_>
        <_>
          9 15 8 6 2.</_></rects>
      <tilted>0</tilted></_>
    <_>
      <rects>
        <_>
          1 18 3 3 -1.</_>
        <_>
          2 18 1 3 3.</_></rects>
      <tilted>0</tilted></_>
    <_>
      <rects>
        <_>
          1 21 4 3 -1.</_>
        <_>
          3 21 2 3 2.</_></rects>
      <tilted>0</tilted></_>
    <_>
      <rects>
        <_>
          1 23 6 1 -1.</_>
        <_>
          4 23 3 1 2.</_></rects>
      <tilted>0</tilted></_>
    <_>
      <rects>
        <_>
          2 0 10 1 -1.</_>
        <_>
          7 0 5 1 2.</_></rects>
      <tilted>0</tilted></_>
    <_>
      <rects>
        <_>
          2 1 22 23 -1.</_>
        <_>
          13 1 11 23 2.</_></rects>
      <tilted>0</tilted></_>
    <_>
      <rects>
        <_>
          3 14 20 10 -1.</_>
        <_>
          3 19 20 5 2.</_></rects>
      <tilted>0</tilted></_>
    <_>
      <rects>
        <_>
          4 23 20 1 -1.</_>
        <_>
          14 23 10 1 2.</_></rects>
      <tilted>0</tilted></_>
    <_>
      <rects>
        <_>
          5 22 6 1 -1.</_>
        <_>
          8 22 3 1 2.</_></rects>
      <tilted>0</tilted></_>
    <_>
      <rects>
        <_>
          6 0 9 1 -1.</_>
        <_>
          9 0 3 1 3.</_></rects>
      <tilted>0</tilted></_>
    <_>
      <rects>
        <_>
          6 1 3 3 -1.</_>
        <_>
          7 1 1 3 3.</_></rects>
      <tilted>0</tilted></_>
    <_>
      <rects>
        <_>
          6 2 6 2 -1.</_>
        <_>
          8 2 2 2 3.</_></rects>
      <tilted>0</tilted></_>
    <_>
      <rects>
        <_>
          6 4 6 20 -1.</_>
        <_>
          6 4 3 10 2.</_>
        <_>
          9 14 3 10 2.</_></rects>
      <tilted>0</tilted></_>
    <_>
      <rects>
        <_>
          7 0 3 10 -1.</_>
        <_>
          7 5 3 5 2.</_></rects>
      <tilted>0</tilted></_>
    <_>
      <rects>
        <_>
          7 22 4 2 -1.</_>
        <_>
          7 22 2 1 2.</_>
        <_>
          9 23 2 1 2.</_></rects>
      <tilted>0</tilted></_>
    <_>
      <rects>
        <_>
          8 12 9 12 -1.</_>
        <_>
          8 18 9 6 2.</_></rects>
      <tilted>0</tilted></_>
    <_>
      <rects>
        <_>
          8 12 10 12 -1.</_>
        <_>
          8 18 10 6 2.</_></rects>
      <tilted>0</tilted></_>
    <_>
      <rects>
        <_>
          9 0 3 18 -1.</_>
        <_>
          9 6 3 6 3.</_></rects>
      <tilted>0</tilted></_>
    <_>
      <rects>
        <_>
          10 8 3 12 -1.</_>
        <_>
          10 14 3 6 2.</_></rects>
      <tilted>0</tilted></_>
    <_>
      <rects>
        <_>
          10 23 4 1 -1.</_>
        <_>
          12 23 2 1 2.</_></rects>
      <tilted>0</tilted></_>
    <_>
      <rects>
        <_>
          11 1 5 10 -1.</_>
        <_>
          11 6 5 5 2.</_></rects>
      <tilted>0</tilted></_>
    <_>
      <rects>
        <_>
          11 16 2 1 -1.</_>
        <_>
          12 16 1 1 2.</_></rects>
      <tilted>0</tilted></_>
    <_>
      <rects>
        <_>
          12 3 3 1 -1.</_>
        <_>
          13 3 1 1 3.</_></rects>
      <tilted>0</tilted></_>
    <_>
      <rects>
        <_>
          12 23 6 1 -1.</_>
        <_>
          14 23 2 1 3.</_></rects>
      <tilted>0</tilted></_>
    <_>
      <rects>
        <_>
          13 0 10 12 -1.</_>
        <_>
          13 0 5 6 2.</_>
        <_>
          18 6 5 6 2.</_></rects>
      <tilted>0</tilted></_>
    <_>
      <rects>
        <_>
          13 12 1 12 -1.</_>
        <_>
          13 16 1 4 3.</_></rects>
      <tilted>0</tilted></_>
    <_>
      <rects>
        <_>
          14 0 10 4 -1.</_>
        <_>
          14 0 5 2 2.</_>
        <_>
          19 2 5 2 2.</_></rects>
      <tilted>0</tilted></_>
    <_>
      <rects>
        <_>
          14 3 10 18 -1.</_>
        <_>
          19 3 5 18 2.</_></rects>
      <tilted>0</tilted></_>
    <_>
      <rects>
        <_>
          14 16 10 2 -1.</_>
        <_>
          19 16 5 2 2.</_></rects>
      <tilted>0</tilted></_>
    <_>
      <rects>
        <_>
          15 0 3 1 -1.</_>
        <_>
          16 0 1 1 3.</_></rects>
      <tilted>0</tilted></_>
    <_>
      <rects>
        <_>
          16 7 6 2 -1.</_>
        <_>
          19 7 3 2 2.</_></rects>
      <tilted>0</tilted></_>
    <_>
      <rects>
        <_>
          18 4 5 12 -1.</_>
        <_>
          18 8 5 4 3.</_></rects>
      <tilted>0</tilted></_>
    <_>
      <rects>
        <_>
          18 6 6 8 -1.</_>
        <_>
          21 6 3 8 2.</_></rects>
      <tilted>0</tilted></_>
    <_>
      <rects>
        <_>
          18 7 6 10 -1.</_>
        <_>
          21 7 3 10 2.</_></rects>
      <tilted>0</tilted></_>
    <_>
      <rects>
        <_>
          19 5 4 16 -1.</_>
        <_>
          21 5 2 16 2.</_></rects>
      <tilted>0</tilted></_>
    <_>
      <rects>
        <_>
          20 10 4 5 -1.</_>
        <_>
          22 10 2 5 2.</_></rects>
      <tilted>0</tilted></_>
    <_>
      <rects>
        <_>
          22 8 2 11 -1.</_>
        <_>
          23 8 1 11 2.</_></rects>
      <tilted>0</tilted></_>
    <_>
      <rects>
        <_>
          22 22 2 2 -1.</_>
        <_>
          22 22 1 1 2.</_>
        <_>
          23 23 1 1 2.</_></rects>
      <tilted>0</tilted></_>
    <_>
      <rects>
        <_>
          23 0 1 18 -1.</_>
        <_>
          23 6 1 6 3.</_></rects>
      <tilted>0</tilted></_>
    <_>
      <rects>
        <_>
          23 0 1 24 -1.</_>
        <_>
          23 12 1 12 2.</_></rects>
      <tilted>0</tilted></_>
    <_>
      <rects>
        <_>
          23 2 1 12 -1.</_>
        <_>
          23 8 1 6 2.</_></rects>
      <tilted>0</tilted></_>
    <_>
      <rects>
        <_>
          23 8 1 15 -1.</_>
        <_>
          23 13 1 5 3.</_></rects>
      <tilted>0</tilted></_>
    <_>
      <rects>
        <_>
          23 9 1 3 -1.</_>
        <_>
          23 10 1 1 3.</_></rects>
      <tilted>0</tilted></_></features></cascade>
</opencv_storage>
